0.02877127	-0.011198538	0.0119975135	-0.05319378	-0.023453483	0.09115422	-0.0024553647	0.025226615	0.028357448	0.006809185	-0.051111884	0.064390466	0.028056778	-0.036997784	-0.098016314	-0.049641605	0.00815617	-0.05223989	-0.030000651	-0.057821292	-0.03814012	-0.01875316	0.015399483	-0.06649045	0.009818618	-0.026004119	-0.0021699404	0.108869225	0.074633695	0.07441576	-0.08371152	0.0518762	-0.0067209234	0.05916363	0.09308567	0.020170216	-0.04876479	-0.008240845	-0.08948671	-0.021027917	0.001787141	0.100775145	0.034360703	-0.1252121	0.025876839	-0.060240857	0.0007276954	-0.06456551	0.03559666	-0.057111435	0.047205407	-0.06317921	0.028201465	0.01399249	-0.015179922	-0.092188835	0.073325075	-0.005567451	-0.079596974	-0.0032574101	-0.040751807	0.06943977	0.00053171534	0.020234818
0.73860335	-0.8108356	-0.7184925	0.10923599	-0.82262355	-0.30433643	0.9925093	0.9493361	0.6489695	-0.1660328	-0.71085024	0.658876	-0.04287934	0.33620042	-0.69586325	-0.84390044	0.54203254	-0.50607765	0.10861581	-0.85886055	-0.44078204	-0.48329782	-0.06652379	-0.2260889	0.7833198	0.43987235	0.97009534	-0.0861275	0.23816055	-0.43609366	-0.57028466	-0.121421725	0.6551298	-0.3431384	0.7689421	-0.41475734	0.47574258	0.3136527	-0.08438094	0.40337846	-0.8901426	-0.38143754	-1.075872	0.13781573	-0.45543766	0.027246796	-0.3081707	-0.1807195	-0.18935478	-0.5984383	0.4159866	-0.19170345	0.20103157	-0.24297968	0.036258917	-0.07149639	-0.084399424	0.0013429001	0.4486825	-1.0310503	-0.07063096	0.40888226	-0.32929286	0.40023974
0.0060839965	0.09570978	0.18135215	0.41766104	0.109074704	-0.5473653	0.048215136	0.04987079	0.8177956	-0.2856893	0.065277	0.12793662	-0.71428853	0.31777766	0.24770008	-0.12790945	-0.2820979	-0.14786921	0.35978407	0.041422464	-0.28961754	-0.36436546	0.369863	0.6825231	-0.26394513	-0.3094693	-0.034831986	-0.4447516	0.07771087	-0.35481524	-0.09422884	0.24361075	-0.18392816	0.2020627	-0.1451324	-0.1501883	0.56729466	0.6652203	0.2232986	0.7476205	-0.10620434	-0.61828643	-0.2613513	0.5756505	0.306192	0.42667	-0.75186884	0.5969135	-0.6364316	0.33437452	0.53684944	0.62643176	0.12762259	-0.7695487	0.6305498	0.22283074	-0.6762133	-0.36977908	0.53117067	-0.18510406	0.72485137	-0.38146895	-0.82381356	0.6750035
-0.22537285	-0.0101450635	-0.060789865	0.02266717	0.09190604	0.0589893	-0.11248698	-0.040291145	-0.27809715	0.073809996	0.15934196	-0.20919311	0.121376455	0.05497616	0.056276757	0.10839523	0.071955055	0.15281057	0.089151196	0.16769525	0.1170606	0.18821235	-0.091958664	7.0420596e-05	0.017007409	0.098175645	-0.17494652	-0.05927667	-0.13466881	-0.020126544	0.13811316	-0.17609327	-0.0837233	-0.13735534	-0.09485727	0.13193613	-0.18238743	-0.3739364	-0.0065952344	-0.33188546	0.020344695	0.08632972	0.1365943	-0.0054285605	-0.1304159	0.07911144	0.2693686	-0.07392445	0.26724964	0.010849501	-0.35486868	-0.07723992	-0.0151174525	0.24582662	-0.11616369	0.07294259	0.20960756	0.040485375	-0.06868843	0.04607381	-0.08454636	-0.063766874	0.28845948	-0.32922494
0.13776167	0.3244265	0.07978531	0.21503066	0.5351276	-0.18262862	-0.44426817	-0.18293281	-0.12373721	0.6471901	-0.30277303	-0.62366277	0.22960934	0.023530751	-0.04362134	0.45104355	0.04205389	0.67833114	-0.012018507	0.21182092	0.66100854	0.5748602	-0.5451025	-0.005701491	-0.43504515	-0.16556162	-0.026811248	-0.4006617	-0.6381684	-0.008379073	0.69256157	-0.41451904	0.18092477	0.44740435	-0.0035879288	-0.64720476	0.70348054	0.0863107	0.7311488	0.2748448	0.21261497	-0.17469311	0.19705215	0.3532181	0.29695302	0.25640154	0.36245188	-0.21332295	-0.3843982	-0.039655115	0.37239504	0.5512838	-0.7189924	-0.36628467	-0.35473508	0.7072885	-0.5232857	0.64759004	0.475992	-0.04169353	0.01722484	0.1000359	0.22172908	0.28707787
-0.9946849	0.81891876	1.2869945	0.43834054	0.57493186	-0.78727823	-0.45299357	-0.8150888	1.4581101	-0.74533534	1.1881435	0.20309353	-1.4641368	0.051533848	1.3804519	0.28701705	-1.6187295	-0.23327087	0.5513041	0.8326132	-0.58852226	-0.70756894	1.0743054	1.3642198	-0.7695306	-1.13623	-1.109188	-0.59270614	0.5937434	-0.13026524	-0.22312933	2.2315388	-1.2866309	0.74205726	-1.2107133	0.48012254	0.21659645	1.0391797	0.06378342	1.0715812	0.5798358	-0.85033554	0.3210225	0.71233386	1.0295904	0.61961585	-1.8718514	1.6678594	-0.81027985	1.4539361	0.7137816	0.8010694	0.47480947	-1.0297178	1.4398029	0.037825085	-0.8210989	-1.142856	0.33219835	0.7207616	1.321879	-1.3548739	-1.8786987	0.8752857
0.30545872	0.13637762	0.004014941	-0.14432453	-0.05225486	0.114029095	0.16542004	0.029434618	0.25115418	0.032279566	-0.23305166	0.24987261	0.08294725	-0.112786755	-0.2146168	-0.12992568	-0.041399013	-0.13681325	-0.20860593	-0.2211294	-0.21318704	-0.22049372	-0.11745754	-0.09900653	0.068847984	-0.25730434	0.2905763	0.15769044	0.20162655	0.1763176	-0.22959176	0.114739336	0.2608162	0.26026845	0.24656816	-0.21398622	0.24701376	0.39410812	-0.023519518	0.3339922	-0.001515234	0.100709245	-0.17331651	-0.08687166	0.270216	-0.19371879	-0.28156132	-0.08769162	-0.33725634	-0.15769035	0.30414456	0.14361317	-0.054016236	-0.27494553	-0.080458224	-0.07134479	-0.25243962	0.0095148515	0.041917704	-0.10283721	-0.06678344	0.21224993	-0.22821368	0.38025883
-0.80498016	0.93733114	0.96087044	-0.36858624	0.9333621	0.54511744	-0.8839278	-1.0207187	-0.50183445	0.48449436	0.76976156	-0.697723	0.19812007	-0.6336591	0.779879	0.8015812	-0.9194444	0.5486023	-0.5019801	0.84021217	0.5843866	0.4751237	-0.18936226	0.07664724	-0.9096634	-0.8330855	-0.85860026	0.342918	-0.13363998	0.6470253	0.57512945	0.5290523	-0.7882111	0.86307997	-0.7953162	0.499305	-0.45476785	-0.22541945	0.033060506	-0.16979794	0.8748179	0.49155045	0.8997327	-0.33992442	0.8784025	-0.31288266	0.34412244	0.08003686	-0.0162488	0.69590765	-0.32215077	0.26923054	-0.44229662	0.1350014	-0.27901992	-0.118554346	-0.12406366	0.3269479	-0.43236268	0.9276781	-0.060794562	-0.2903881	0.3130512	-0.24217461
-0.40262645	0.2948643	0.5227546	-0.20270094	0.30310342	0.19613154	-0.24380127	-0.46372896	-0.076561935	-0.13925512	0.47915447	-0.013917411	-0.09700932	-0.2820771	0.46260262	0.20271063	-0.45208037	-0.035075683	-0.09785904	0.36690152	-0.13870274	-0.09751615	0.25282565	0.14777409	-0.3124839	-0.30843905	-0.5272964	0.26158267	0.27822134	0.24007644	-0.10285942	0.44212615	-0.45879743	0.1462407	-0.49016497	0.4839084	-0.48104683	-0.1466651	-0.2960631	-0.13719656	0.35850033	0.21284197	0.29851553	-0.20165874	0.2932059	-0.17807259	-0.100962326	0.2653325	0.07869905	0.5124498	-0.24109636	-0.06604703	0.15485246	0.15085278	0.08417693	-0.36601436	0.15053926	-0.23020804	-0.42126074	0.46939945	0.10955722	-0.28393573	-0.08760356	-0.15901764
-0.30348572	-0.25441694	0.10059072	-0.77270335	-0.71175086	0.5514152	0.5883704	0.0627649	0.15433808	-0.65480363	0.64752173	1.0451189	-0.16716143	-0.549823	0.25678682	-0.5920689	-0.45012155	-1.1118859	-0.2692026	-0.22274736	-0.97797805	-1.0502435	0.580923	-0.05907018	0.72217	-0.15027691	-0.061882313	1.1071541	1.3706083	0.36879924	-1.242429	1.1779152	-0.52517337	-0.37389073	-0.17772034	1.0843632	-1.2549697	-0.2432178	-1.5780873	-0.4765443	-0.09965933	0.63585234	-0.18381472	-0.9463877	-0.18443319	-0.62589777	-0.5884409	0.35656753	0.69320786	0.09758854	-0.6662659	-1.4704311	0.8338581	0.6623343	0.2353491	-1.7172717	0.8897146	-0.6210884	-1.3818706	0.21345532	-0.12143424	-0.20875822	-0.40822583	-0.57812786
-0.06904759	0.076018825	0.17090425	-0.23445894	-0.11649797	0.086173914	0.14543998	-0.10458035	0.2786483	-0.26132464	0.22110328	0.39250562	-0.18950532	-0.17614524	0.04248052	-0.16898614	-0.26688525	-0.3567967	-0.08468402	0.008814564	-0.30253482	-0.29681495	0.25033188	0.11025227	0.11437397	-0.22639152	-0.0315083	0.26168805	0.3185549	0.061073292	-0.36455852	0.4484327	-0.17897727	0.040769894	-0.06336419	0.26188678	-0.23023875	0.24236907	-0.4142206	0.13946235	0.0068320828	0.05299877	-0.07942405	-0.26899755	0.124793485	-0.15493451	-0.38213634	0.20806424	0.024505083	0.07609134	0.03825276	-0.19143234	0.20911458	-0.06750379	0.17879118	-0.40465227	0.044454176	-0.24769554	-0.18081936	0.089098155	0.07758399	-0.09566527	-0.33792225	0.07411694
0.17449717	0.2808066	0.034108106	-0.26570252	0.17044136	0.3583998	-0.13562977	-0.20786999	0.072137356	0.3540982	-0.2184747	0.035042115	0.32713687	-0.34680757	-0.14380877	0.077927515	-0.12654477	0.055502515	-0.4003866	-0.09381815	0.082098074	0.08971946	-0.3663004	-0.3469496	-0.11337929	-0.24408753	0.08574761	0.25143126	-0.01508855	0.33871722	-0.049034003	0.059574045	0.24903835	0.37728587	0.158206	-0.29283586	0.18498875	0.24838409	0.06414917	0.16522406	0.16470094	0.27667275	0.035234705	-0.32496175	0.28643614	-0.37405643	0.06310991	-0.34411034	-0.25851077	-0.11012341	0.312863	0.031413093	-0.30184993	-0.16133045	-0.3288949	-0.12662698	-0.2163039	0.33218586	-0.0964082	0.092583574	-0.2845303	0.33054847	-0.0003132651	0.23834653
-0.50813055	0.5541517	0.20407492	-0.032423306	1.0295177	0.38863048	-1.0119561	-0.6278326	-1.2606312	1.2744713	0.2173257	-1.5240209	0.8627295	-0.26786673	0.20195319	1.0579051	0.0072377617	1.3901583	-0.35760468	0.7326832	1.4308945	1.4763823	-0.95313215	-0.5048785	-0.70483494	-0.0055321837	-0.5875056	-0.031123295	-1.0944841	0.41863847	1.5064245	-0.6494962	-0.14432548	0.24315925	-0.44254884	-0.008313975	-0.20873785	-0.9457566	0.6174432	-0.79440284	0.570909	0.4858941	0.9525102	-0.12090554	0.20708998	-0.012481487	1.3316244	-0.78605336	0.6123671	0.061611716	-0.6667769	-0.014614945	-1.1776237	0.6369801	-1.0673788	0.5817041	0.3497565	1.2158982	-0.11968558	0.6185916	-0.5830078	0.21420957	1.2556949	-0.786009
0.105107106	-0.3746479	-0.364737	0.034242086	-0.37758654	-0.039918043	0.27613732	0.40109527	-0.21370694	-0.017314456	-0.16631663	0.058392715	0.21563362	0.22646089	-0.285354	-0.2671407	0.33947796	-0.080301754	0.11298478	-0.23683481	0.051485594	0.067011945	-0.13713351	-0.3115128	0.4549807	0.31562385	0.2938591	-0.015105617	-0.00393135	-0.18114677	-0.0707274	-0.16475332	0.20867966	-0.4289269	0.23942623	0.027346138	-0.11247105	-0.25982386	-0.0736165	-0.2608752	-0.34411523	0.023465622	-0.20987594	0.008899538	-0.42130575	0.0011937987	0.28146788	-0.2615542	0.3627015	-0.37046245	-0.2971636	-0.41010922	0.091743566	0.32020077	-0.09225933	-0.0557401	0.3844364	0.052109335	0.030300103	-0.30869713	-0.26595196	0.1359856	0.2271629	-0.2648483
0.78248066	-0.8397497	-0.7431198	0.5707986	-0.5796119	-0.6560014	0.59538674	0.91458756	-0.17314386	0.56394166	-0.9506162	-0.30242556	0.4840222	0.7528891	-0.83078426	-0.4157243	0.81140596	0.51904404	0.3783945	-0.7223632	0.52523136	0.44674814	-0.7063746	-0.5057745	0.63079023	0.7230683	0.90960085	-0.642712	-0.65786725	-0.69539887	0.41453463	-0.780888	0.79439837	-0.60653615	0.888327	-0.9203855	0.9341894	-0.15253593	0.74559563	-0.12622413	-0.8146247	-0.6611262	-0.68362534	0.5513325	-0.7130489	0.38216394	0.6016842	-0.6370798	0.05829597	-0.77508014	0.17903958	-0.030908741	-0.578202	0.070117176	-0.57114726	0.7116945	0.0028020767	0.64638394	0.9371441	-0.9225285	-0.40027124	0.6500335	0.46454635	-0.024245776
0.3677328	-0.066731736	-0.29233208	0.10480065	0.124381706	0.08042468	-0.046255965	0.09263591	-0.33652988	0.598719	-0.44786042	-0.47271347	0.61092794	0.06326897	-0.429117	0.15341027	0.29792795	0.5115793	-0.08233108	-0.1890569	0.5854174	0.47179198	-0.6760503	-0.4995384	0.012741531	0.2426846	0.29357395	-0.101518326	-0.49618897	-0.010299723	0.4678558	-0.51649654	0.44164965	0.024422413	0.31906766	-0.51056397	0.41646272	-0.18143842	0.42928872	-0.15514866	-0.09620703	0.11620925	0.06662018	-0.0029496674	-0.13967796	-0.053283885	0.5602298	-0.62888986	0.07077385	-0.40817714	0.08594488	-0.037983086	-0.5509505	0.0960816	-0.6762429	0.3683744	0.015463665	0.6734201	0.21778789	-0.11043772	-0.4337687	0.531121	0.4753962	-0.0125523815
-1.7126852	0.2235559	0.9782359	1.3397402	0.43568477	-1.6803615	-0.44922274	-0.37983215	1.2288828	-0.76602805	1.6403561	-0.1266689	-1.6980044	1.2421764	1.5025995	0.27250817	-0.7996719	0.07711734	1.3813902	1.0154048	-0.25727138	-0.24046132	1.1742852	1.5317389	-0.6104172	-0.33280757	-1.34337	-1.2689798	-0.016364627	-1.1532396	0.18609625	0.9291981	-1.6097945	-0.013481341	-1.5895138	0.54930645	0.07777003	0.4401773	0.29056263	0.6102101	0.19244394	-1.3848188	0.49021482	1.2912363	0.25940594	1.4650192	-1.2400963	1.7778573	-0.35515678	1.4218464	0.18276538	0.63042223	0.46822134	-0.5502542	1.6183354	0.54403603	-0.45586818	-1.272745	0.685014	0.48642442	1.5369772	-1.6112361	-1.3643085	0.38247296
-0.15089095	-0.5600474	-0.45714796	0.053716432	-0.4080479	-0.06705683	0.20857188	0.34835488	-0.6988948	-0.040414315	0.11137925	-0.16441514	0.38862157	0.15513411	-0.22684331	-0.13275976	0.4808939	0.11315018	0.13816747	-0.12889357	0.14851029	0.2689175	-0.114785664	-0.4498143	0.5248851	0.56404775	0.13921131	0.048200477	-0.14796649	-0.19745201	0.12887917	-0.32043284	0.087527536	-0.7698484	0.091076136	0.27330562	-0.48818576	-0.8982931	-0.18331638	-0.89271796	-0.33351764	0.15534717	0.04087234	-0.05272001	-0.710365	0.13028455	0.6909204	-0.34943196	0.9415134	-0.41637382	-0.9163288	-0.951314	0.22892295	0.95167184	-0.28147098	-0.018643834	0.89910245	0.1334513	-0.2356039	-0.20759535	-0.38504428	0.13320403	0.73387593	-0.8923057
0.101192266	-0.19740114	-0.15718187	0.2826813	-0.059332553	-0.33993638	0.09944463	0.24152194	0.047353007	0.10043074	-0.20415707	-0.14707445	0.0033373786	0.31086022	-0.16310841	-0.0771298	0.22765166	0.12011146	0.279534	-0.1064589	0.20889245	0.14318347	-0.10999362	0.024153536	0.14450578	0.20808208	0.16785501	-0.3227361	-0.30811965	-0.36041564	0.1484943	-0.3275196	0.15835978	-0.18232664	0.17717384	-0.29494843	0.2877898	0.02865711	0.27564925	0.013606687	-0.23608883	-0.36094838	-0.15412328	0.2822015	-0.24578747	0.23201582	0.06040707	-0.03148006	0.019029533	-0.12974569	0.090193175	0.09256653	-0.11523995	-0.022224493	0.026676489	0.36796415	-0.008760879	0.059857883	0.42410114	-0.19268452	0.02423162	0.06792975	0.043587852	0.0979131
0.041557662	0.29297075	0.09510018	-0.07223863	0.242871	0.16538553	-0.20283963	-0.13892019	-0.11656521	0.35403225	-0.08419309	-0.27244556	0.2595711	-0.14688136	-0.006685922	0.23989631	-0.1171294	0.25358236	-0.14158788	0.08601097	0.26248816	0.3157886	-0.25634745	-0.16670005	-0.23761678	-0.15282643	0.028255725	0.015853379	-0.24002904	0.19726649	0.32704595	-0.06407744	0.09259679	0.30540687	0.005666938	-0.21541123	0.19963147	0.071898475	0.20031054	0.13829069	0.21216825	0.08695711	0.19151759	-0.056971807	0.2435482	-0.14904726	0.18335515	-0.23933846	-0.15966348	-0.061502546	0.14208414	0.13799001	-0.34387487	-0.11630575	-0.24583782	0.15958723	-0.24223772	0.36418697	0.11431407	0.08928643	-0.18817933	0.16240987	0.11723045	0.08418509
-0.13936992	-0.2342531	-0.17249538	0.26771083	-0.007478254	-0.26772657	0.0021593014	0.18265821	-0.29506144	0.014269251	0.060064033	-0.2442838	0.0030396117	0.33743414	-0.041691296	0.027467541	0.2998207	0.25745544	0.26659685	0.03623564	0.19136846	0.26522204	0.031914897	0.05179765	0.050588507	0.32524708	-0.098764375	-0.2706953	-0.23608688	-0.2755319	0.27786168	-0.36574453	-0.013948248	-0.38366964	-0.116409674	0.07002346	-0.13387254	-0.39865655	0.12790464	-0.33952698	-0.20369394	-0.16845912	0.10100117	0.26079863	-0.3670896	0.35771343	0.38299876	-0.007349953	0.3487473	-0.067515284	-0.39246526	-0.0966111	-0.013118479	0.3751601	0.026565133	0.28087527	0.29072037	0.009612428	0.07669848	-0.10871635	0.0412593	-0.11534069	0.29403546	-0.3511817
-0.3974269	1.078446	1.0984728	0.11218441	0.73067725	-0.11654496	-0.62932974	-0.9089084	0.7478237	0.011427238	0.44444853	-0.14444707	-0.7465743	-0.2732487	0.8513589	0.5699096	-1.3993539	0.10282095	0.03796053	0.55518514	-0.12728976	-0.21176852	0.49906063	0.8339217	-0.8626147	-1.2845937	-0.6560298	-0.2056861	0.024683679	0.20099653	0.04692575	1.1812434	-0.6105361	1.0965173	-0.6371613	-0.14286518	0.4447139	0.9309184	0.30352163	0.93493366	0.77930516	-0.2785338	0.36347848	0.32037407	1.2269921	0.13199522	-1.1645719	0.947642	-0.9248965	0.9657145	0.8353843	0.8400021	-0.20326981	-0.9989456	0.6554379	0.14182283	-0.9765201	-0.5611339	0.25368837	0.7814282	0.6800961	-0.6015021	-1.1808949	0.83698434
0.06957709	-0.16366297	-0.09853936	-0.18005958	-0.38061404	0.0063778004	0.39100558	0.26433453	0.50266784	-0.38977018	-0.025949774	0.6439129	-0.23378912	-0.03639757	-0.023889098	-0.48919	-0.08150038	-0.60607433	0.042143874	-0.25417307	-0.62498885	-0.57542396	0.29172406	0.15103753	0.36588806	0.015389977	0.19250022	0.15986164	0.5963091	0.0130349435	-0.67690885	0.42081726	0.015493742	-0.09667635	0.10630955	0.18082006	-0.12866691	0.22903968	-0.4013084	0.22920465	-0.21263508	0.0033048808	-0.42695397	-0.15644109	-0.07410258	-0.10018498	-0.56915104	0.28731602	-0.059830345	-0.020951526	0.1400974	-0.20736827	0.36626726	-0.08741124	0.3402046	-0.43800947	-0.039258175	-0.39223343	-0.25408173	-0.25591257	0.1334073	-0.124905124	-0.50310946	0.13611604
0.41338614	0.3088674	0.019973185	-0.5860438	0.0010530418	0.7602149	0.16895542	-0.13170303	0.14198902	0.6676532	-0.37501645	0.21027248	0.80122215	-0.57267016	-0.35576326	-0.10974942	-0.12396103	-0.12977433	-0.66439086	-0.2547917	0.024936574	-0.077524476	-0.63158256	-0.7016174	0.032789756	-0.3223541	0.33665168	0.59586823	0.14572927	0.5571121	-0.1927479	0.27837312	0.4041667	0.60544163	0.37235612	-0.3297144	0.3550609	0.27727935	-0.21783654	0.32194182	0.19018742	0.5795696	-0.21149558	-0.704523	0.44474638	-0.6639689	-0.021971151	-0.75001186	-0.30398777	-0.3306351	0.42079198	-0.3028975	-0.64898103	-0.30365318	-0.8529201	-0.43575227	-0.18647726	0.7267615	-0.13533789	-0.017973766	-0.7463325	0.5573149	-0.038826	0.34777218
0.24706581	0.27156138	-0.020231964	-0.16135769	0.046392474	0.20166418	0.0166208	-0.051388603	0.08305324	0.22776332	-0.30607286	0.0468043	0.151173	-0.23940247	-0.16177595	0.015798718	-0.08948707	-0.012035288	-0.21366309	-0.1341054	0.06213584	-0.05970606	-0.22831948	-0.15693408	-0.10177229	-0.23683901	0.17040849	0.12557204	0.037570283	0.2550916	-0.047005873	0.053155404	0.24233665	0.31443304	0.23651248	-0.27014035	0.28977942	0.2302382	0.059121173	0.239318	0.10414928	0.15748738	-0.08367524	-0.15103163	0.25568062	-0.223787	-0.004237167	-0.21061644	-0.29270744	-0.10989128	0.33504725	0.1315648	-0.25064224	-0.2889526	-0.26460826	-0.011111504	-0.28830495	0.22697014	0.036349315	-0.03152244	-0.14950216	0.22551602	-0.06967418	0.29625496
0.25289685	-0.27131066	-0.38313928	0.2820071	-0.120352976	-0.14758472	0.13897322	0.33107576	-0.30960977	0.3401976	-0.4350484	-0.25884175	0.28974047	0.24518509	-0.32907307	-0.025224425	0.43634704	0.34037283	0.07946316	-0.22980542	0.40048707	0.37034422	-0.4436185	-0.28961903	0.195013	0.39650726	0.25143608	-0.25065583	-0.36565083	-0.16742592	0.2926558	-0.45120606	0.36557198	-0.25188848	0.2833331	-0.35600358	0.31623784	-0.27654353	0.41401038	-0.24753204	-0.2259144	-0.12078271	-0.16421807	0.19905485	-0.34723946	0.14286333	0.40948477	-0.41074818	0.21002144	-0.40343037	-0.13048342	-0.07447098	-0.34399095	0.23615526	-0.35852876	0.38163048	0.090440854	0.43967515	0.2389135	-0.3579548	-0.22230199	0.28472543	0.32606888	-0.13985178
-0.47961175	0.26419038	0.33789694	0.14333253	0.42118984	-0.052477106	-0.42043012	-0.31574392	-0.15862219	0.01910658	0.46720675	-0.3275636	-0.20644945	-0.04357717	0.50358176	0.34748784	-0.28519684	0.18851224	0.048665505	0.46400994	0.1933827	0.17667063	0.14537151	0.29439172	-0.38449705	-0.11166252	-0.48477015	-0.17878535	-0.10345034	0.062350214	0.25269574	0.1349686	-0.44450873	0.082571544	-0.59748363	0.21453047	-0.13712163	-0.14923635	0.05945151	-0.08240065	0.22499457	-0.00578034	0.43729424	0.11592956	0.11858851	0.18073979	0.07145232	0.32241	0.04498971	0.4472713	-0.14481337	0.19400811	-0.01968033	0.057048	0.11507779	0.106191866	-0.05889682	-0.16342592	-0.11895066	0.3635088	0.2243031	-0.33490643	0.04198443	-0.18222673
-0.041965563	0.24975446	0.17461771	0.12610148	0.41137213	-0.07960133	-0.32079056	-0.13248186	-0.06282862	0.33172733	-0.1458736	-0.37857756	0.013763089	0.06314421	0.13508117	0.2876638	-0.13327193	0.44225836	0.01319096	0.22927943	0.31882495	0.33436862	-0.2731184	0.093389854	-0.35476676	-0.18248487	-0.07531922	-0.2669208	-0.36379528	0.042695343	0.3838107	-0.15612897	0.06645208	0.2949646	-0.095929496	-0.35677597	0.37364277	0.08150734	0.3839651	0.26313418	0.20899913	-0.14359166	0.13555428	0.19573759	0.26233593	0.10729009	0.23100844	-0.051013436	-0.29500943	0.08956022	0.25914264	0.35540044	-0.41359237	-0.31119528	-0.16759808	0.36276084	-0.28752583	0.31624398	0.3184376	0.09748765	0.066366374	0.05009927	0.108547	0.21529268
1.3068732	1.4035167	-0.40449265	-1.5043192	-1.0538064	1.8891814	1.0753149	0.07713938	1.2566888	1.275177	-1.420152	1.4785082	1.4869455	-1.6452763	-1.4756125	-0.974876	-1.3753103	-1.5367558	-1.5718507	-1.2297051	-1.5753217	-1.5629058	-1.3989619	-1.4314461	1.1756887	-1.6839293	1.2801037	1.696199	1.6657526	1.6357237	-1.6177132	1.5134095	1.2884706	1.8354996	1.3846143	-1.2574146	1.2752683	1.4492421	-1.7211463	1.4797682	0.33604515	1.6189377	-1.1322442	-1.699256	1.8336425	-1.4803166	-1.5546299	-1.6183561	-1.3943754	-1.6450324	1.5455059	-0.3943082	-1.1924134	-1.574128	-1.5391035	-1.6330817	-1.5324095	1.4196007	-0.7389775	-0.50161946	-1.4263259	1.3590097	-1.425168	1.4281679
0.3378135	-0.19710298	-0.3070727	0.1902386	-0.19054313	-0.1415801	0.17657804	0.30518085	0.19228795	0.13751422	-0.38390878	0.04191145	0.07844363	0.1380357	-0.32820696	-0.15004958	0.26379418	-0.010479296	0.029905368	-0.29990134	-0.0054808324	0.053872824	-0.17258659	-0.071079604	0.16362105	0.14411803	0.35351428	-0.15900671	-0.109768234	-0.19853833	-0.001164745	-0.26492995	0.3331281	-0.05966473	0.3373799	-0.41458267	0.49733105	0.21533719	0.242943	0.22645691	-0.30022267	-0.16736121	-0.36539063	0.17227794	-0.095074914	0.10715164	-0.024640718	-0.13456874	-0.23978849	-0.357954	0.2771278	0.17851861	-0.17575322	-0.2172426	-0.14292029	0.21687306	-0.19394177	0.15317033	0.34386057	-0.32616872	-0.07454922	0.27902147	-0.024415739	0.21275939
-0.25526008	0.17378452	0.12479903	-0.09961399	0.236268	0.22922595	-0.26362306	-0.2324479	-0.2763672	0.24027948	0.16436432	-0.19413307	0.17412335	-0.16166243	0.20452534	0.2549821	-0.10919248	0.1851929	-0.15412249	0.22924644	0.16458753	0.18588637	-0.14820749	-0.011356212	-0.20093368	-0.103766516	-0.23035571	0.10823682	-0.03486977	0.15995185	0.16144615	0.022491904	-0.15042073	0.16556235	-0.24412943	0.11612962	-0.15347783	-0.23989323	-0.005032804	-0.17797977	0.2264176	0.17398618	0.2916032	-0.16308925	0.10384351	-0.066915706	0.27027622	-0.08361757	0.17696768	0.15006213	-0.20478345	-0.08710706	-0.12900771	0.11321155	-0.24208482	-0.08234229	0.08129986	0.22512726	-0.18574923	0.20249741	-0.05109432	-0.026221689	0.26047987	-0.2176787
0.85675734	1.2386438	0.07149561	-1.505021	-0.16728292	1.7798393	0.2175938	-0.43749171	0.45905814	1.2262166	-0.8424388	0.79634255	1.4459434	-1.6148428	-0.97802454	-0.17761728	-1.1378498	-0.88035476	-1.6092687	-0.6632773	-0.7925938	-0.93526185	-1.3690948	-1.4506913	0.34990972	-1.6160016	0.59754777	1.626024	1.3771753	1.4852126	-1.0412028	1.3789785	0.86798245	1.7658136	0.9550841	-0.6242938	0.36696732	0.8914307	-1.6015695	0.75626034	0.5636002	1.4468367	-0.28953996	-1.6462858	1.7991813	-1.5225956	-0.7081312	-1.4933445	-0.86870646	-1.1980587	0.8733025	-0.4893479	-1.1713142	-0.79112846	-1.4943526	-1.5471365	-0.8520958	1.4635099	-0.74789536	0.17373636	-1.4297467	1.2007136	-0.5772766	0.84180903
-0.3649292	0.06326768	-0.13969417	-0.080330715	0.57733786	0.4589098	-0.76366115	-0.31224704	-1.6240342	1.4225768	0.051584624	-1.5859662	1.5838301	-0.082796134	-0.11271712	0.95031446	0.26950377	1.5104699	-0.36164424	0.44584996	1.4597851	1.460441	-1.2201295	-1.5055121	-0.1631624	0.34870905	-0.26573175	0.13497207	-1.0004526	0.30018723	1.6145278	-0.6846047	0.016665349	-0.36127177	-0.16033556	0.08750817	-0.5472374	-1.4195964	0.44995457	-1.5292943	0.2996319	0.69746447	0.82624155	-0.34227803	-0.30277884	-0.12009988	1.6951953	-1.3126179	1.4549825	-0.34688956	-1.3763992	-1.5855445	-1.2612617	1.5071875	-1.6040643	0.40770227	1.5096688	1.542877	-0.3595834	0.2962132	-1.4859176	0.68376154	1.5809913	-1.4766738
-0.42021835	0.49675778	0.51289624	-0.17800494	0.40397003	0.2188076	-0.39764294	-0.53303784	-0.095924646	0.019785203	0.4268676	-0.14861189	-0.07733831	-0.2825377	0.38229132	0.33010325	-0.5203755	0.096066475	-0.13883144	0.47278437	0.05913485	0.08153437	0.18325351	0.13447602	-0.44802225	-0.44577023	-0.44138348	0.14055547	0.055031314	0.2542427	0.083351776	0.3580194	-0.42335007	0.35329702	-0.40599597	0.23111518	-0.21586889	0.062894665	-0.13993968	0.018560247	0.4628933	0.15945932	0.44344503	-0.109533705	0.4712488	-0.10124126	-0.061148666	0.29268786	-0.08147653	0.40463895	-0.049075305	0.1371657	-0.10848475	0.0033873788	0.037365016	-0.19470108	-0.11170053	-0.083989866	-0.220702	0.44913802	0.048490483	-0.29503915	-0.035208948	-0.0109273065
0.065596275	0.22065394	0.034207188	-0.2819554	0.29590803	0.45590037	-0.20835936	-0.23010561	-0.3400498	0.54541016	-0.14993939	-0.26562712	0.53715146	-0.34281892	-0.20329277	0.32713696	-0.025452627	0.27951548	-0.40765733	-0.00039696804	0.3420304	0.27262083	-0.552597	-0.49277538	-0.12685561	-0.07717452	-0.026220419	0.3124818	-0.22292544	0.3052548	0.23835382	-0.15456538	0.20507419	0.27354228	0.15858	-0.17482439	0.043492384	-0.06498183	0.050410256	-0.09310884	0.23622893	0.42725474	0.18520714	-0.32982153	0.24259637	-0.2620403	0.3693219	-0.5432712	-0.019496314	-0.2249658	-0.021397786	-0.022207359	-0.49406198	0.06616468	-0.6566983	0.040083207	0.025420653	0.62292784	-0.1822318	0.18249041	-0.48230812	0.4036454	0.37417468	-0.042240366
-0.44290534	0.19050126	0.42121974	0.0014117751	-0.020011654	-0.07004319	-0.031651877	-0.23514499	0.35818443	-0.42501315	0.5208015	0.32226762	-0.60824764	-0.03458664	0.5476366	-0.041564222	-0.5233531	-0.44621447	0.19784583	0.2050764	-0.5058296	-0.45610556	0.5809803	0.59630156	-0.115186505	-0.3228539	-0.3751872	-0.021355964	0.4951527	-0.048158344	-0.42610753	0.8217197	-0.53107095	0.038979713	-0.45508188	0.49936253	-0.35069218	0.14902821	-0.31238133	0.19010384	0.096604325	-0.085760176	0.08501665	0.09283185	0.24794231	0.13382867	-0.7163932	0.7141983	-0.105570555	0.59669673	-0.040933333	0.077899516	0.3789041	-0.11288701	0.59630316	-0.35265356	-0.08650211	-0.62713605	-0.20465738	0.2630479	0.46131793	-0.5283112	-0.66498494	0.079071075
-1.4111761	1.2978678	1.2077025	1.2648876	1.388553	-1.589806	-1.3980633	-1.3741152	1.4355582	0.46517104	1.4056431	-1.3202727	-1.4169248	1.357872	1.1925528	1.2515116	-1.2034391	1.2684406	1.4241984	1.2567174	1.2314187	1.3311609	0.8394769	1.2675152	-1.3189967	-1.1266644	-1.2637422	-1.3989466	-1.45637	-1.0523978	1.4232712	0.59985805	-1.1898683	1.3632956	-1.3446794	-1.0979306	1.2875247	1.4497892	1.301975	1.3144599	1.2884002	-1.3904763	1.5828832	1.3246014	1.2407745	1.3577752	-1.2478293	1.4901755	-1.227964	1.2685931	1.4921259	1.227335	-0.93145174	-1.2828301	1.6450728	1.4165366	-1.1838511	-0.81383556	1.3380463	1.4910694	1.2107217	-1.3276927	-1.3509593	1.327503
-0.19898021	0.0064998805	-0.025498884	0.061084826	0.15032661	-0.0099890055	-0.19956735	-0.011847435	-0.30222663	0.13575123	0.031369567	-0.33383867	0.10662291	0.077489026	0.13322183	0.17258626	0.05156596	0.23063853	0.065803885	0.17390747	0.30194402	0.24851318	-0.14415258	-0.058069337	-0.15792134	0.08976666	-0.11061411	-0.15642776	-0.16998449	-0.04732073	0.27896503	-0.17620954	-0.10377682	-0.06678854	-0.17801175	0.014448456	-0.056983776	-0.31504375	0.19142534	-0.18377478	0.09344054	-0.01007728	0.21265963	0.13194533	-0.037323684	0.07461367	0.31091356	-0.106007226	0.20808771	0.12372644	-0.24592802	0.009717114	-0.06451537	0.16129678	-0.17666432	0.11350785	0.067315854	0.17297252	-0.041027676	0.00227958	-0.010443109	-0.05834962	0.2893156	-0.23448932
0.46682405	0.6643916	0.11193373	-0.39729226	0.34096724	0.47850206	-0.24655382	-0.30264306	0.20515887	1.0369692	-0.52779955	-0.11893777	0.41804326	-0.5635417	-0.20805612	0.2581356	-0.28911522	0.18014036	-0.62549865	-0.094489135	0.19106574	0.08581	-0.85612243	-0.3246971	-0.25010252	-0.6264743	0.17061326	0.25310513	-0.10808242	0.5894159	0.12511265	0.15696308	0.3261752	0.9448408	0.26409772	-0.6699472	0.66172826	0.54073316	0.2492837	0.5795253	0.3450258	0.31432647	-0.05191027	-0.29660195	0.80684054	-0.40272942	-0.05627379	-0.46042544	-0.67476124	-0.09867362	0.69259906	0.3780292	-1.0153091	-0.69930357	-0.61574346	0.07312444	-0.7105886	0.86736095	0.14471067	0.054673705	-0.35175955	0.48112413	-0.11076273	0.6329494
0.14562386	-0.6447194	-0.5096246	0.4657317	-0.30473974	-0.49345776	0.22259653	0.5183378	-0.585101	0.2230178	-0.30933997	-0.47193268	0.2923709	0.5003759	-0.3550655	-0.06140217	0.61590374	0.4269214	0.4366395	-0.242683	0.5107458	0.49145994	-0.3197763	-0.31020817	0.34178674	0.6327553	0.3349743	-0.51346695	-0.48647198	-0.4569362	0.5676106	-0.6385736	0.30865106	-0.61707973	0.24877757	-0.23575923	0.11269023	-0.70636415	0.43528596	-0.5965619	-0.5130571	-0.32451585	-0.15664166	0.45070517	-0.65150523	0.463809	0.6451164	-0.44513097	0.5346413	-0.44566092	-0.45345402	-0.30891752	-0.138692	0.6121403	-0.34143692	0.51621246	0.48670226	0.33277285	0.35474348	-0.4580384	-0.20318371	0.28854382	0.6086563	-0.5064421
0.028156476	-0.07695649	-0.1979021	0.078470945	0.086923055	-0.01885706	-0.10787106	0.07361799	-0.38692135	0.25853035	-0.18605937	-0.34945786	0.3185285	0.09850811	-0.15318586	0.11918059	0.2522278	0.32904786	-0.02872518	0.027423074	0.3475076	0.3518713	-0.32390198	-0.26189506	-0.007918129	0.21415249	0.106885806	-0.15333632	-0.33313587	-0.044948786	0.3870687	-0.36293805	0.17368132	-0.09740936	0.045795493	-0.19210732	0.08344847	-0.28126138	0.26113334	-0.22755142	-0.08219251	0.002258249	0.16170149	0.09810603	-0.11758756	0.07614261	0.5053598	-0.36355937	0.17177668	-0.19590393	-0.1593392	-0.10000593	-0.2404248	0.25018707	-0.36387372	0.2813133	0.18066223	0.43036726	0.09804284	-0.062498763	-0.20695992	0.22647806	0.43004	-0.2683486
0.2758835	0.07256519	-0.04985381	-0.053878285	0.011699397	0.06811578	0.0022428308	-0.0030109484	0.1286551	0.2457235	-0.27479222	0.020661706	0.17498249	-0.007202235	-0.19347659	0.05483011	0.020366604	0.106718734	-0.09406901	-0.1472295	0.06836289	0.040977966	-0.20571303	-0.098933235	0.015831953	-0.043751102	0.11809223	0.046364874	-0.1391284	0.02356214	0.070409924	-0.05923393	0.25295395	0.13910815	0.23547107	-0.32984465	0.30309242	0.21674046	0.15333179	0.15766609	-0.031451065	-0.030734064	-0.043098163	-0.05845858	0.07413145	-0.054821834	-0.01595413	-0.1430645	-0.2501462	-0.2220386	0.23647203	0.12890215	-0.25378123	-0.15319686	-0.20412761	0.091379285	-0.26238298	0.14395078	0.20273528	-0.029849082	-0.16242504	0.21992512	0.008552752	0.23383193
0.3060229	-0.40268275	-0.44363707	0.31291816	-0.25603554	-0.3326585	0.20294957	0.4448474	-0.2242856	0.2339385	-0.36542258	-0.24668449	0.28082314	0.3622053	-0.35405275	-0.15298875	0.48168892	0.2776157	0.21954714	-0.25671813	0.29647216	0.32105577	-0.30380258	-0.25857517	0.26577732	0.44765693	0.39320076	-0.36055684	-0.3533655	-0.37485468	0.3003495	-0.48606637	0.35156453	-0.309956	0.36012286	-0.30364546	0.2833754	-0.28510854	0.3594999	-0.17622384	-0.38769978	-0.32674485	-0.2276035	0.29664424	-0.383749	0.20708111	0.41862768	-0.34647128	0.16989367	-0.40849492	-0.042583697	-0.0762978	-0.23163357	0.20842603	-0.29655415	0.4246538	0.17305219	0.36255097	0.4568435	-0.46774814	-0.18709075	0.25674805	0.36945903	-0.13921894
0.09111552	-0.5952931	-0.35216618	0.2346159	-0.40452236	-0.3153673	0.38033903	0.4545428	-0.20906948	-0.112952076	-0.05290231	0.030897176	0.023188498	0.43412805	-0.20634702	-0.25711122	0.51215607	0.046872515	0.32525158	-0.27545917	0.016226199	0.062081587	0.020320404	-0.0840635	0.51223785	0.50151104	0.2327566	-0.17917508	-0.09009882	-0.35335192	0.051205777	-0.3548081	0.17590111	-0.6393114	0.2042605	0.0279658	-0.13837469	-0.32967824	0.050094984	-0.4257457	-0.49282256	-0.27081877	-0.26813194	0.22617865	-0.62977207	0.27412003	0.30028042	-0.12662964	0.4391524	-0.29030198	-0.3523507	-0.506194	0.1877302	0.47709152	0.021723067	0.06711697	0.45816627	-0.02886557	0.12945065	-0.3842872	-0.1314956	0.019766038	0.32343617	-0.34789553
0.21035345	-0.2969301	-0.32722473	0.03415314	-0.24713364	-0.023501066	0.23205629	0.3072713	-0.2697871	0.15270773	-0.24467413	-0.021579355	0.35794738	0.11944881	-0.3024164	-0.15446998	0.37851027	0.069872685	-0.010482386	-0.23335698	0.13112095	0.15766436	-0.3243812	-0.37239832	0.3195239	0.31627467	0.29514256	-0.0070762555	-0.12107634	-0.07497409	0.12620527	-0.26324323	0.27413145	-0.31947502	0.27735874	-0.18485256	0.101137064	-0.24489066	0.08168101	-0.28669932	-0.25512475	-0.016412219	-0.14317115	-0.03442061	-0.31401616	-0.038192987	0.30162024	-0.4008575	0.19488972	-0.3476192	-0.20527798	-0.29678425	-0.05327092	0.25767726	-0.28516653	0.074382275	0.2657097	0.269662	0.108950876	-0.23112969	-0.28074008	0.33062956	0.299748	-0.22774954
-0.46087357	0.27898702	0.26837468	-0.13090754	0.47167206	0.2615815	-0.581656	-0.39197078	-0.7784388	0.37119985	0.34009898	-0.6817587	0.4448623	-0.17519619	0.25572032	0.5107967	-0.049559712	0.6580072	-0.24123384	0.5550577	0.67245823	0.6317316	-0.3832358	-0.26388162	-0.37041262	0.027140826	-0.4915099	0.10180926	-0.42028922	0.23650464	0.66181266	-0.24765813	-0.3197717	0.073063016	-0.43112576	0.31681508	-0.41687283	-0.73076516	0.117649734	-0.6267386	0.30686623	0.33868647	0.64699984	-0.12198776	0.05836668	-0.07679324	0.7834622	-0.3131541	0.5295238	0.17882168	-0.5883772	-0.15418291	-0.36757424	0.54521686	-0.4378169	0.1702075	0.4385861	0.5159857	-0.26294646	0.4181599	-0.34970596	-0.03606076	0.7091556	-0.60238254
0.04272565	-0.29809335	-0.29516056	0.2204519	0.0014276279	-0.17699522	-0.020938419	0.21348947	-0.4773308	0.3136262	-0.21017848	-0.3756618	0.36222774	0.25859725	-0.28144592	0.03892403	0.32788292	0.4065655	0.10654041	-0.03573687	0.43858522	0.4734138	-0.32362685	-0.28635973	0.1634176	0.3788187	0.13157773	-0.26784763	-0.4431297	-0.13950479	0.42719954	-0.44216195	0.23027483	-0.2907692	0.20881452	-0.13963027	0.08832551	-0.43168667	0.3025734	-0.43210953	-0.17248754	-0.08378232	0.066732846	0.15149929	-0.37737298	0.22442973	0.61979944	-0.39940837	0.3782545	-0.3612159	-0.36317602	-0.17891723	-0.18979509	0.40633982	-0.37562865	0.35763422	0.34867224	0.38687155	0.15793131	-0.109467834	-0.3028468	0.22831893	0.5816893	-0.3818474
-1.0568215	-0.35347685	0.361593	0.051430244	-0.4914216	-0.30205578	0.30513236	0.09010597	0.06420658	-0.8234389	1.184962	0.69213074	-0.7703844	0.15230817	1.1637487	-0.36497882	-0.45844808	-0.79042524	0.4911467	0.3932033	-0.74883485	-0.73000985	0.8716277	0.7407971	0.4429315	0.24416386	-0.6791163	0.12545812	0.8952777	-0.29087532	-0.8562	1.1925853	-1.1184597	-0.7586887	-1.0195807	1.0924402	-1.2026757	-0.7292505	-1.009753	-0.7196908	-0.20225605	-0.043456912	0.06993017	-0.021165665	-0.48578745	0.29927602	-0.71559906	0.9866579	0.8974359	1.0759269	-1.0473707	-0.7825386	0.8344691	0.8668173	0.7472298	-1.0860173	0.87414205	-0.8829472	-0.7502036	0.23601563	0.6853139	-0.932216	-0.54745734	-0.87335485
-0.73845553	-0.5356512	0.06255441	-0.14890659	-0.73771954	-0.13402064	0.6309843	0.28219372	0.25363767	-0.9144577	0.9624939	0.9309862	-0.60707253	0.11745431	0.7615354	-0.6191141	-0.33691114	-0.98111886	0.3715746	0.055377215	-0.9230625	-0.98099875	0.88370633	0.583613	0.7231518	0.31183746	-0.3775205	0.41040257	1.1339548	-0.21387847	-1.0899835	1.0843289	-0.8835994	-0.83496153	-0.6558247	1.1155975	-1.313993	-0.51142734	-1.2483561	-0.74021196	-0.31210247	0.07176829	-0.27719337	-0.3003683	-0.6138917	0.09505708	-0.7952697	0.78574836	0.9248879	0.7010497	-0.9337131	-1.1949114	0.88082004	0.9028569	0.6992975	-1.2961152	1.0210632	-0.8996287	-1.0431513	-0.0002166844	0.5269798	-0.72982347	-0.6206912	-0.800269
-0.42659727	-0.39325914	0.12467081	0.22640418	-0.42311388	-0.4643929	0.35591528	0.31784976	0.46545953	-0.7433254	0.5193277	0.55343235	-0.6851906	0.3148103	0.4305442	-0.42223683	-0.12866172	-0.56311095	0.43763447	0.00047356266	-0.6852091	-0.63152224	0.750357	0.5762825	0.2407488	0.2291895	-0.24593598	-0.14541747	0.58570164	-0.35211736	-0.6541726	0.6032657	-0.5131963	-0.45326874	-0.4323673	0.6169791	-0.5458191	-0.045651194	-0.54107887	-0.04496875	-0.35170135	-0.38800496	-0.3340278	0.19704291	-0.33781898	0.35918778	-0.672905	0.7239785	0.21656519	0.48013252	-0.2690287	-0.26842442	0.7120383	0.20560253	0.67500573	-0.49177396	0.27843592	-0.77870816	-0.26547346	-0.18506004	0.5374216	-0.6284347	-0.6025104	-0.19717132
-0.46871737	0.40581474	0.4597878	0.42155102	0.5502856	-0.38580447	-0.51594514	-0.3644301	0.01972318	0.085987836	0.3519643	-0.57908344	-0.35195658	0.26092014	0.59509873	0.53413	-0.26882055	0.5554624	0.38437456	0.61371976	0.49541438	0.4400786	0.14208464	0.48439008	-0.5450966	-0.19439632	-0.54541177	-0.5950735	-0.5234023	-0.15406917	0.66204345	-0.15720154	-0.48408306	0.2975434	-0.61447483	-0.10882788	0.3120357	0.029683294	0.6041347	0.19317056	0.36731982	-0.40613064	0.52121085	0.566996	0.31882033	0.5098948	0.017501457	0.41812143	-0.2671727	0.552213	0.16994847	0.5510364	-0.26679853	-0.2488417	0.28172404	0.601721	-0.37987933	-0.13694516	0.36025292	0.3678418	0.47058618	-0.5466433	-0.07351468	0.22036174
0.14573991	0.3071638	0.023007156	0.091104455	0.29443032	-0.02155284	-0.2928521	-0.15042037	0.05729324	0.59508896	-0.31635797	-0.33030298	0.20603622	-0.038129285	-0.058821213	0.27960193	-0.013806054	0.4511718	-0.08373061	0.0811053	0.37670854	0.31319964	-0.42505458	0.010806334	-0.29306445	-0.20169726	0.026032941	-0.18144874	-0.3718222	0.09717874	0.351796	-0.1928509	0.2231563	0.4452061	0.09225341	-0.5183216	0.5905114	0.23462217	0.4672761	0.33604908	0.14861654	-0.06289986	0.085320674	0.13528271	0.31337494	-0.014797627	0.11990221	-0.19150488	-0.36768752	-0.061228238	0.36396688	0.40195888	-0.6388648	-0.4269946	-0.2587457	0.42150587	-0.4724288	0.4891255	0.3597286	-0.014174928	-0.05547817	0.124975085	0.024567503	0.32536238
0.17073748	-0.5388542	-0.43340802	0.2887289	-0.32892874	-0.2351189	0.15299359	0.41809648	-0.6397114	0.30481052	-0.3749857	-0.3947675	0.50783277	0.30818984	-0.4015874	-0.023083238	0.5008787	0.41544446	0.1677794	-0.26030496	0.48222053	0.4699235	-0.49085045	-0.48557293	0.3733081	0.47947618	0.32605228	-0.24811786	-0.40394846	-0.26399732	0.5066534	-0.58841157	0.38891676	-0.5642677	0.3997648	-0.25491083	0.0991915	-0.57678163	0.3550831	-0.6352148	-0.3804317	-0.023578651	-0.11340278	0.2223946	-0.5714704	0.226945	0.6610433	-0.5992258	0.5310802	-0.5472789	-0.4978368	-0.512862	-0.22522224	0.58259255	-0.4761618	0.37322575	0.5878313	0.5025303	0.20207107	-0.3795045	-0.51567155	0.427183	0.68133026	-0.59227675
0.41576433	-0.24897286	-0.46089292	-0.034806136	-0.2675803	0.17312577	0.23164678	0.37993687	-0.36214152	0.5858974	-0.59770656	-0.18867698	0.70536184	-0.0020572434	-0.62216526	-0.13235812	0.36060077	0.28713104	-0.23573725	-0.37665716	0.34577602	0.29260448	-0.72254246	-0.67298865	0.4058298	0.3127773	0.447256	0.0055069206	-0.3055825	-0.029830113	0.24737896	-0.38337785	0.557947	-0.17007902	0.54941165	-0.3735	0.28512692	-0.20117153	0.26655337	-0.28625306	-0.24061029	0.23017196	-0.16114351	-0.124699965	-0.2799987	-0.15830624	0.4918184	-0.7639343	0.22650093	-0.6394192	-0.121584475	-0.25922447	-0.46636188	0.20519273	-0.7073331	0.21211687	0.20734532	0.73092824	0.07531808	-0.32195494	-0.64331543	0.5878153	0.51346695	-0.2061777
-1.0865482	1.3788735	1.0765902	0.95953447	1.3220801	-1.1307921	-1.2386814	-1.3778868	0.95813555	0.6232731	1.053725	-1.1940211	-1.0759218	0.58771175	1.0613573	1.2322589	-1.1046739	1.1225443	0.8344921	1.1314331	1.2041377	1.1531907	0.5470042	0.97642565	-1.2530462	-1.1343032	-1.1711959	-1.0665219	-1.220571	-0.43416554	1.2421005	0.55783296	-1.0373008	1.3232784	-1.0575812	-1.0037379	1.1614915	1.1545634	1.1535902	1.0662801	1.203229	-1.0510025	1.2403712	1.0154402	1.2463365	0.90838665	-0.9014805	1.2080362	-1.1343769	1.0857062	1.3374226	1.0399499	-1.0508156	-1.0771562	1.199021	1.1932693	-1.0610365	-0.5574477	1.1215262	1.2856084	0.9621527	-1.065822	-0.9545279	1.1980624
-0.22595917	-0.34302327	-0.19364701	0.3124825	-0.15613313	-0.40002215	0.087375365	0.26131126	-0.14643486	-0.18222995	0.1128299	-0.026809242	-0.173574	0.3867574	0.08292223	-0.118579045	0.27522185	0.020969333	0.41603503	0.04306215	0.06624971	0.059773486	0.11534141	0.13818131	0.18560928	0.37474924	-0.013034869	-0.3089785	-0.110056944	-0.32016683	0.100045845	-0.22013897	-0.10563145	-0.45465648	-0.16157119	0.17855081	-0.14954422	-0.40579233	0.019309402	-0.29454672	-0.2937835	-0.26563576	-0.085649	0.36786276	-0.37088716	0.44750476	0.13513617	0.09182992	0.31153545	0.024554731	-0.35432887	-0.11626686	0.21961603	0.29241705	0.18034641	0.14704768	0.24509637	-0.085455954	0.14571306	-0.24661212	0.16078044	-0.23303765	0.17973755	-0.3126047
-0.19444893	0.049141485	0.13230364	0.19882704	0.07597996	-0.27894962	-0.017071553	-0.023828119	0.3358737	-0.19249865	0.24369228	0.14051816	-0.45488757	0.1531774	0.3783431	0.010971221	-0.14392875	-0.07948533	0.24500395	0.14431351	-0.17201792	-0.18774109	0.355501	0.48624253	-0.087648936	-0.060040005	-0.21170646	-0.20630127	0.05858252	-0.16572452	-0.12414651	0.24169509	-0.2853016	0.01805853	-0.32053927	0.10386371	-0.005828151	0.121870406	0.06504718	0.17208178	-0.03173646	-0.29610175	0.008914648	0.31855974	0.06060382	0.2967044	-0.43144298	0.42739797	-0.19489436	0.3152102	0.088550314	0.23905173	0.1847558	-0.16455564	0.36804393	-0.004729008	-0.18122095	-0.30143678	0.06881925	-0.058021456	0.45152357	-0.35926244	-0.44584888	0.09895416
-0.091227904	-0.17744914	-0.096886404	-0.49267575	-0.5491089	0.32938167	0.4763501	0.13910553	0.15712577	-0.4260227	0.27234018	0.7159041	-0.08741673	-0.32031888	-0.00089957914	-0.48994744	-0.19226544	-0.6882252	-0.1045024	-0.19520989	-0.64535713	-0.6900119	0.33778355	-0.12534764	0.62160134	-0.031009655	0.03961049	0.666705	0.85559773	0.20269531	-0.788257	0.6961339	-0.15551612	-0.24527673	0.027293388	0.5966992	-0.7142512	-0.09218019	-1.0032116	-0.3472144	-0.15530926	0.43460572	-0.20157139	-0.64788556	-0.11833819	-0.40788427	-0.39111394	0.19809969	0.43719482	-0.039187543	-0.35692203	-1.1150049	0.49255785	0.4362023	0.18347634	-1.1080537	0.6366838	-0.30581152	-0.89581066	0.0038291838	-0.13221203	-0.092559114	-0.26886398	-0.33850032
-1.2782577	1.0747234	1.075132	1.0648834	1.1452062	-1.347901	-1.0884778	-1.1257801	1.3696954	0.08923804	1.2299942	-1.021461	-1.2871773	1.0194068	1.1083542	0.9958209	-1.0441568	0.8981967	1.253604	1.0950981	0.839426	0.8089314	0.7590283	1.159391	-1.0720496	-0.9511816	-1.1040139	-1.1513073	-1.0339264	-0.8557082	1.0555761	0.6444909	-1.1047038	1.0370272	-1.143088	-0.7065103	1.0110791	1.3477565	1.0306115	1.1457464	0.99438673	-1.2499926	1.2554874	1.1662531	1.0802131	1.1361617	-1.0938553	1.3646504	-1.0503942	1.1017312	1.2244633	1.0783559	-0.6127172	-1.1476736	1.3890693	1.1211282	-1.0420564	-0.7767567	1.1006284	1.1924837	1.1299365	-1.1267741	-1.190898	1.152724
-0.37203768	-0.1338393	0.02074034	0.19552702	-0.09205312	-0.29053292	-0.04488853	0.014958343	-0.21624649	-0.26798323	0.38891503	-0.061455876	-0.17413236	0.26716083	0.250939	0.030363888	0.11905073	-0.030181367	0.30181602	0.20336466	-0.05735635	0.06642495	0.22025906	0.24353692	0.05845257	0.22990409	-0.22147869	-0.20900682	-0.06151702	-0.20519872	0.052577496	-0.06831673	-0.28387937	-0.2922819	-0.34098747	0.33483687	-0.31928873	-0.3849241	-0.006742845	-0.33057943	-0.07453067	-0.11634165	0.12466404	0.26614025	-0.2917524	0.27725348	0.038962472	0.31105286	0.32854015	0.24394082	-0.44749182	-0.16542119	0.21047476	0.35101962	0.2149392	0.069513425	0.30566657	-0.2602032	-0.08559953	-0.02166862	0.25999594	-0.37641478	0.12874205	-0.4397881
1.0524741	-1.0263956	-0.8757608	0.80947363	-0.80619925	-0.925043	0.81212604	1.0783945	-0.7217488	0.99061406	-1.1934111	-0.7959362	0.9556387	0.8967365	-1.014015	-0.540579	0.92367256	0.850015	0.6033547	-0.9118797	0.8331369	0.85791874	-1.0078833	-0.8064335	0.84060204	0.85956526	1.0781786	-0.89202976	-0.9317297	-0.8843179	0.92957616	-1.0342541	0.96166927	-0.90058416	1.108619	-1.0444694	1.236374	-0.61345094	1.038271	-0.54082	-0.92256826	-0.88061154	-0.7936379	0.7899367	-0.89262474	0.6203103	0.91137004	-0.969194	0.46349922	-1.0315973	-0.17638463	-0.25799593	-0.9800713	0.5494236	-1.0545031	0.93128556	0.45219794	1.0537992	1.1369963	-1.0246767	-0.7416878	0.8927334	0.88743526	-0.3737248
1.0263451	1.1298809	0.009952748	-1.3665909	-0.50956744	1.5494169	0.68658936	-0.1601519	1.0267531	0.61337215	-0.9597353	1.2423813	0.8985521	-1.4460437	-0.9395583	-0.5775431	-1.1761118	-1.2059011	-1.420791	-0.8989458	-1.2627879	-1.2493438	-0.8264475	-1.0333053	0.5607637	-1.415391	0.85066634	1.4598612	1.4761486	1.3206354	-1.4225131	1.4568473	0.90286756	1.4493178	1.0591118	-0.6862339	0.629102	1.1576992	-1.2477304	1.1060001	0.37873936	1.2661208	-0.7861749	-1.469135	1.4891087	-1.3269383	-1.2679527	-0.94532424	-1.1635859	-0.9640986	1.1854686	-0.13130574	-0.5144851	-1.1249521	-0.9033186	-1.4877675	-1.0629913	0.7073954	-0.68960357	-0.03218197	-0.94890296	1.0451038	-1.167998	1.1196067
-0.9475527	0.20267013	0.17785144	-0.29092565	0.58094484	0.5267528	-0.7446334	-0.49161053	-1.2725002	0.55734104	0.73492354	-1.0288992	0.78434116	-0.32290065	0.44385546	0.695131	-0.082602285	0.91223747	-0.38956928	0.74235666	0.87110907	0.9400141	-0.48910144	-0.7887215	-0.43628657	0.17856558	-0.72568953	0.35979953	-0.51168686	0.33708203	1.1053488	-0.373182	-0.55353725	-0.14056651	-0.780211	0.7123269	-1.1244416	-1.5705239	-0.14366737	-1.555771	0.46566376	0.58880985	0.81479365	-0.5259148	-0.14029248	-0.25720873	1.2128259	-0.59540427	1.6910222	0.22501191	-1.7050505	-1.4295349	-0.38330498	1.6714544	-0.80991673	-0.1067909	1.6901661	0.6307987	-0.7033402	0.5886913	-0.82397723	0.027907325	1.2574775	-1.5931405
0.8025265	-0.66024595	-0.7111538	0.11341314	-0.65177613	-0.051892824	0.66665316	0.7028482	-0.073219195	0.56562287	-0.8291062	-0.050738525	0.73778075	0.30026734	-0.89694375	-0.5409466	0.6104137	0.19736664	-0.044162396	-0.7143895	0.32901457	0.22013848	-0.75621384	-0.79035515	0.7926077	0.4953933	0.8053919	-0.11101615	-0.3931995	-0.26688513	0.14244707	-0.53628016	0.7799687	-0.36024565	0.9054889	-0.7394148	0.7966096	0.008568815	0.4448844	0.03533598	-0.63868177	-0.21914913	-0.6401227	-0.00020048894	-0.42973596	-0.0648844	0.37427843	-0.8025934	-0.01786158	-0.88959503	0.26586154	-0.35550764	-0.55478626	0.06397806	-0.7886551	0.35483524	0.020079218	0.7157272	0.57984066	-0.79578227	-0.75732684	0.7771179	0.36746135	0.14627089
0.37100467	-0.21256039	-0.3002963	0.46320432	0.08503391	-0.41027722	-0.021331755	0.30473176	-0.1487551	0.6043779	-0.52036726	-0.46454084	0.26260158	0.4210663	-0.32223365	0.1335796	0.4270987	0.56501925	0.2505945	-0.16253938	0.5609592	0.58949536	-0.51904404	-0.09367821	0.018362861	0.3319525	0.2904161	-0.48244944	-0.6738581	-0.44866088	0.5511205	-0.52241534	0.41732636	-0.12322158	0.32954934	-0.7647748	0.8557212	-0.008319574	0.6964658	0.08062503	-0.31467226	-0.50308216	-0.17757554	0.42561924	-0.2563774	0.35101226	0.39446244	-0.34357557	-0.082607105	-0.34887844	0.23918132	0.2700087	-0.64463717	-0.17363179	-0.29937375	0.7051452	-0.24336338	0.5420583	0.7002934	-0.36895317	-0.08880871	0.2609042	0.28820255	0.15369461
0.3243764	-0.5565145	-0.4278736	1.2190039	0.06079718	-1.5032352	-0.040790796	0.5395876	-0.5599448	0.58487076	-0.575474	-1.1495389	0.04709393	1.2125187	-0.36595494	0.2427103	0.6706607	1.1173731	1.2997612	-0.1047494	1.038717	0.99469864	-0.42833427	0.072730444	0.05163955	0.58517283	0.421231	-1.3544878	-1.0710181	-1.0881011	1.2624285	-0.9283898	0.39852786	-0.63727576	0.25844792	-0.93596005	1.1322101	-0.43729132	1.227988	-0.17926429	-0.4710061	-1.3652042	-0.1642181	1.3737882	-0.6159035	1.2937695	0.69704837	-0.28931352	0.16359593	-0.3695104	0.0506228	0.3741949	-0.7137383	0.1423246	-0.045711115	1.2525619	-0.07151756	0.44612375	1.3336476	-0.60133755	0.13734707	0.15711233	0.6163407	-0.24476255
0.102813296	-0.041928943	-0.1292834	-0.009664186	-0.079640515	0.12491937	0.005068984	0.109149255	-0.21530642	0.17956145	-0.12216648	-0.13360964	0.33878213	-0.026817841	-0.15731364	0.012296991	0.13034703	0.108352065	-0.10116958	-0.09338537	0.16728483	0.18479833	-0.26280233	-0.2136994	0.08685529	0.15500046	0.1599367	0.09025977	-0.038929697	0.013371043	0.10775269	-0.106936365	0.18418953	-0.10891131	0.10188626	-0.057169773	-0.018421605	-0.15530063	-0.0133426525	-0.11863115	-0.12251218	0.1317906	-0.08401511	-0.118888594	-0.112108976	-0.11598771	0.24600986	-0.3317261	0.18169238	-0.14065424	-0.1262781	-0.10327342	-0.17453662	0.118668586	-0.27435175	0.061976474	0.06605318	0.31667316	-0.08055957	-0.07476985	-0.23129024	0.23886964	0.2807821	-0.12345746
-1.456889	-0.81723297	0.05859421	0.09130732	-0.8578191	-0.39176178	0.68352777	0.44975033	-0.05756196	-1.1315557	1.4687172	0.9757361	-0.88744384	0.35281992	1.3792543	-0.7056106	-0.11113086	-1.0199965	0.7142426	0.26864737	-1.0059484	-0.9736755	1.1218238	0.93900913	0.8341947	0.7379443	-0.7977444	0.1665989	1.2411276	-0.44352117	-1.1224405	1.1408511	-1.4128065	-1.2871678	-1.4052775	1.5635375	-1.7927384	-1.4588034	-1.3732518	-1.483662	-0.5338818	-0.1273585	-0.14237244	-0.053648923	-1.0847493	0.53838205	-0.7056953	1.0690084	1.5980195	1.2805966	-1.7757705	-1.5026987	1.2160298	1.6303779	0.91976243	-1.5120198	1.6041495	-1.0821296	-1.2679462	0.017598616	0.75279915	-1.1659858	-0.49164182	-1.6141294
0.09073035	0.56714314	0.45484015	-0.7944858	0.03503203	0.7850893	-0.014088839	-0.44557732	0.2335107	-0.018203251	0.08174375	0.4753492	0.18648213	-0.7831037	0.045202814	-0.0609408	-0.86886054	-0.5254217	-0.62506515	0.013586077	-0.50436175	-0.62094086	0.066003256	-0.25778323	-0.016676892	-0.82618207	-0.070091955	0.877654	0.8648459	0.71510476	-0.6153712	1.2815892	-0.061836038	0.578773	0.057581626	0.27839848	-0.37989885	0.34237128	-0.77610815	0.16209391	0.38683835	0.69733363	-0.028407436	-0.84232724	0.67495465	-0.75557446	-0.52648455	-0.0057522347	-0.23285246	0.14549182	0.14869942	-0.26645944	0.01118507	-0.099446215	-0.22369082	-1.0180906	-0.0793373	-0.02790213	-0.6772406	0.37817568	-0.24119565	0.13840497	-0.4432094	0.17608391
-0.40883866	-0.16094846	0.052181456	0.2631442	-0.05474052	-0.3067741	0.00875638	0.026956536	-0.02648936	-0.2638872	0.38705343	-0.031132214	-0.34376028	0.33613414	0.36404362	-0.018750034	0.043232474	-0.008011496	0.40258968	0.21679382	-0.07768583	-0.035901908	0.37525582	0.28756803	0.018621195	0.15658885	-0.19689111	-0.2820041	0.00038819262	-0.30741927	0.03605513	0.053565975	-0.34439766	-0.3481103	-0.3287111	0.27215645	-0.2703608	-0.27600667	-0.07022782	-0.23017661	-0.07002653	-0.24072178	0.11957288	0.24673496	-0.26248384	0.31598037	-0.002908359	0.34359857	0.29617733	0.24983007	-0.2967432	-0.1599016	0.27367842	0.31188357	0.40687054	0.04348103	0.27459455	-0.308178	-0.041520245	0.081804395	0.29439467	-0.38624227	0.0506433	-0.24720676
-0.5109989	-0.045082293	0.24332274	0.59439886	0.18675876	-0.72019553	-0.16838585	-0.02860441	0.3053486	-0.31021816	0.4383204	-0.21375075	-0.60989696	0.46736705	0.5991133	0.15728985	-0.09912632	0.15400246	0.6427515	0.40732142	0.09709114	0.069289625	0.4605009	0.6589207	-0.2822889	0.051180076	-0.45368174	-0.6102035	-0.19900452	-0.50716275	0.24995828	0.0735376	-0.5086722	-0.08037034	-0.58777726	0.10463584	0.14960219	0.0425887	0.3306555	0.2320583	-0.02575468	-0.5808307	0.13543794	0.670171	-0.0014054227	0.6800148	-0.24649784	0.64686376	-0.1068244	0.5947851	0.07459383	0.41343257	0.18022303	-0.20266883	0.6267957	0.44354448	-0.21017288	-0.4784136	0.3144198	0.06715695	0.6839227	-0.67176855	-0.29213655	0.08582229
0.5759857	-0.27577516	-0.49387163	0.060446955	-0.19758187	0.112057194	0.10424662	0.34135947	-0.43453747	1.0681055	-0.7064917	-0.46187598	1.0205213	0.06483346	-0.73407644	0.04347012	0.4540655	0.5798692	-0.23575829	-0.44985294	0.6153424	0.5273024	-0.98326254	-0.97025555	0.38509586	0.27023435	0.5435857	-0.017639441	-0.502839	-0.057201438	0.49297467	-0.51474226	0.6313755	-0.14255738	0.65764236	-0.6375763	0.49735978	-0.22427277	0.48628893	-0.23285344	-0.2464943	0.17725798	-0.15021911	-0.077263266	-0.21887408	-0.07574573	0.6000657	-0.91624004	0.13527447	-0.75936174	0.023656413	-0.3805342	-1.0027695	0.2062682	-1.1460613	0.42293286	0.13265549	1.0550839	0.26951942	-0.2818705	-0.8875419	0.87491536	0.55754256	-0.15757024
-0.13669892	-0.13382629	-0.014706557	0.16164024	-0.011537693	-0.18962641	-0.019719558	0.13134156	-0.069619514	-0.056327708	0.11056278	-0.048574153	-0.07427059	0.12873685	0.0688022	-0.05805428	0.13627858	0.08634694	0.14895333	0.07389819	0.07089602	0.10233364	0.105855934	0.14292757	-0.016240852	0.17214733	-0.10011996	-0.1114701	-0.06770307	-0.12991181	0.117261775	-0.0688958	-0.07303137	-0.16702458	-0.15223391	0.16420904	-0.14163038	-0.19545245	-0.00046686656	-0.18560354	-0.1490345	-0.18902405	0.018884817	0.2042293	-0.22405788	0.1978224	0.060134783	0.025686473	0.21590555	0.14169107	-0.2131175	-0.044113275	0.10338834	0.14408572	0.11833285	0.014944088	0.12296245	-0.074674286	1.8324543e-05	-0.08357556	0.11153399	-0.11965822	0.123440996	-0.22900422
0.08406704	0.23670115	0.091146916	-0.35480762	0.21445216	0.4654158	-0.22137849	-0.26131684	-0.29101503	0.5524275	-0.11646595	-0.21376945	0.6347181	-0.3397928	-0.17448023	0.30512917	-0.009705076	0.24037497	-0.48890337	0.020418162	0.33482942	0.2733235	-0.5537565	-0.49757403	-0.17997807	-0.15377966	0.008937791	0.31031683	-0.19655287	0.35287294	0.18993805	-0.0848632	0.11688627	0.32843214	0.08443653	-0.12679215	0.014800916	-0.09613392	0.016369931	-0.1218081	0.20384529	0.3672126	0.15024723	-0.36702526	0.16423723	-0.3855501	0.42213747	-0.52530575	0.007987131	-0.091042385	-0.008337251	-0.1801139	-0.52481914	0.11684076	-0.6182945	-0.081631966	0.10152444	0.5992857	-0.11090587	0.17382255	-0.5761184	0.39149824	0.39966455	-0.07660491
-0.10078278	0.50830746	0.46566585	0.20328365	0.34466252	-0.28190258	-0.28035572	-0.37333134	0.8277381	-0.0140167335	0.020510452	-0.009469408	-0.52315325	0.08192842	0.3429616	0.15206048	-0.5590644	0.032843247	0.10953805	0.25008878	-0.10228372	-0.12886813	0.20212765	0.4626267	-0.39396515	-0.62280095	-0.15858117	-0.31130493	0.023430655	-0.041427407	0.07544437	0.4490874	-0.19455571	0.5809294	-0.17831708	-0.33834392	0.5901972	0.74579036	0.30314994	0.8435536	0.2616464	-0.39699107	0.055369005	0.33335325	0.6792554	0.19647165	-0.7877807	0.5275606	-0.7740609	0.3985387	0.78671134	0.61824244	-0.14316793	-0.85006076	0.48727995	0.26039305	-0.6507643	-0.25653127	0.4831023	0.1541229	0.44597676	-0.36078453	-0.9162664	0.7727408
-0.040610794	-0.34317017	-0.24660923	0.0884217	-0.22750866	-0.072544314	0.14576	0.23323819	-0.37248376	-0.041484106	0.03531183	-0.08665065	0.19106236	0.2437128	-0.12830873	-0.10002195	0.28222093	0.041726068	0.17417164	-0.12658195	0.12694873	0.10003302	-0.043949265	-0.15934408	0.34167638	0.39606214	0.06047256	-0.046249256	-0.07622757	-0.19328202	0.11313519	-0.28949422	0.10784489	-0.44149372	0.11150173	0.18240182	-0.24601124	-0.5341152	-0.011966859	-0.49473333	-0.25810838	0.04271346	-0.08662858	0.041079592	-0.49483693	0.14262573	0.33495146	-0.18198863	0.55309916	-0.17138563	-0.536107	-0.55624735	0.08006488	0.51183534	-0.13040254	0.08346196	0.54632515	0.05121026	-0.07992537	-0.22272286	-0.22235195	0.105222724	0.38774395	-0.4984025
-0.22594602	0.18250695	0.2779246	-0.10449335	0.17363924	0.12765804	-0.21854672	-0.2888637	0.054664075	-0.08107924	0.29056734	-0.0037860235	-0.09491204	-0.22186552	0.3012573	0.13142945	-0.25785804	-0.010251703	-0.16135369	0.26052836	-0.12525044	-0.10125996	0.09745755	0.09023908	-0.17580408	-0.21055016	-0.3030199	0.121964745	0.20364317	0.19703224	-0.06489414	0.3665257	-0.2877511	0.18612324	-0.26690716	0.23105106	-0.2392461	0.0028286977	-0.15921931	0.034492157	0.24378863	0.07637474	0.13509929	-0.12818392	0.25933337	-0.14499713	-0.13218288	0.17660148	-0.05799029	0.32122514	-0.016341113	-0.025570773	0.04717029	-0.040819783	0.11809347	-0.20905711	-0.0028716468	-0.079927236	-0.20212033	0.22516996	0.10324515	-0.23691668	-0.080347545	-0.029948816
-0.97822064	0.7499151	0.8194064	-0.2368581	0.95784277	0.37842366	-0.94564646	-0.8842218	-0.6502898	0.45281005	0.9254416	-0.96466887	0.19543731	-0.434451	0.858124	0.95351404	-0.60128474	0.86293757	-0.2855744	1.008818	0.8172853	0.82178736	-0.10298285	0.06410576	-0.90218407	-0.56350046	-0.99948484	0.123357356	-0.5225955	0.43901289	0.9481963	0.03735551	-0.86031634	0.5310204	-0.9525635	0.5177796	-0.5345776	-0.61406606	0.16162539	-0.41748902	0.7981114	0.29874185	0.9576994	-0.18400891	0.61966044	-0.15920825	0.6614797	0.0020615058	0.30101624	0.73532075	-0.5450785	0.16458358	-0.49736193	0.37909776	-0.28459102	0.13507754	0.16144134	0.23783666	-0.2945427	0.8570497	-0.103763156	-0.45001975	0.6074118	-0.44621837
-0.6850019	1.0278639	0.8718304	0.9468744	1.0148851	-1.1647004	-0.95382893	-1.018773	1.1057122	0.61262304	0.6130274	-1.0188311	-0.94562095	0.89694566	0.79107404	0.9120688	-0.7720036	1.0095468	0.940793	0.88193154	0.9854831	0.9937221	0.10892777	0.8493113	-0.9688018	-0.91002756	-0.7720794	-1.0098772	-1.0970075	-0.7631499	1.0162052	0.15111798	-0.6363416	1.0012249	-0.77664906	-1.0087657	1.1700389	1.1337507	1.0505261	1.0014737	0.92625856	-1.0410672	1.0889624	1.008359	0.94171214	0.92286277	-0.6980481	0.9331569	-1.0146852	0.83180153	1.2625035	0.96626544	-0.9177719	-1.0648191	1.0121695	1.0991372	-0.94738126	-0.16174887	1.0919734	0.9012291	0.8840513	-0.80097365	-0.90098363	1.1336874
0.4297386	-0.1995112	-0.39618546	0.17928074	0.00034011208	-0.09980434	0.004926195	0.22267812	-0.21018776	0.50116473	-0.5145836	-0.36814147	0.42739576	0.22445863	-0.41057354	0.020567987	0.3824133	0.44114926	0.0039204727	-0.20579563	0.41404143	0.38593704	-0.5283458	-0.28885427	0.10037492	0.24027851	0.3205784	-0.22361666	-0.48681092	-0.13231243	0.35985932	-0.4963138	0.44007164	-0.118088484	0.38754722	-0.5080492	0.46234244	-0.14697063	0.4738581	-0.0692031	-0.2353157	-0.107902974	-0.114336066	0.21203117	-0.23338999	0.104280114	0.4272052	-0.4410992	-0.055307783	-0.41740918	0.123707734	0.039364275	-0.5017362	0.011907615	-0.4317256	0.4759692	-0.067184	0.61061263	0.39245015	-0.34843644	-0.25253305	0.43392202	0.39240324	-0.00023339673
0.7352182	-0.63138497	-0.7804504	0.2232472	-0.6097385	-0.15660742	0.5514878	0.73708653	-0.25967327	0.41954044	-0.80613214	-0.074996576	0.6238113	0.2955953	-0.9425185	-0.4027912	0.7422357	0.19486994	0.1044035	-0.7456315	0.29432178	0.24997355	-0.63718724	-0.6544093	0.7016152	0.5298087	0.8673879	-0.20106351	-0.40860915	-0.2764298	0.14385131	-0.5629163	0.80629915	-0.47800902	0.9125264	-0.5326877	0.52939934	-0.15580006	0.39228392	-0.23828037	-0.6610606	-0.11310875	-0.5440727	0.152968	-0.51954293	0.030050825	0.53745896	-0.74564636	0.19855566	-0.9292936	-0.04192435	-0.44473088	-0.29109707	0.22038579	-0.5842806	0.41395512	0.24002126	0.57111895	0.4124854	-0.7466586	-0.6232873	0.7499562	0.4757767	-0.16153775
-0.91206545	0.36631468	0.751856	1.085634	0.5490787	-1.3180292	-0.5387535	-0.49000007	1.3482949	-0.3459016	0.7884296	-0.29783398	-1.2880232	1.0999544	0.8913082	0.37133422	-0.597423	0.31517574	1.106268	0.71498275	0.097988114	0.11097309	0.78758174	1.1449533	-0.67253584	-0.52463585	-0.7485689	-1.0481533	-0.3064709	-1.0183728	0.3667589	0.48636	-0.83365	0.41652295	-0.9287533	-0.11122654	0.5516057	0.86477435	0.61507106	0.8587114	0.29090384	-1.255196	0.3815211	1.0425223	0.50630784	1.1057025	-1.1000471	1.24718	-0.69908637	0.9201055	0.6810021	0.75572586	0.120503195	-0.7882067	1.2256587	0.7162836	-0.7003054	-0.8038458	0.8794089	0.43375117	1.1273887	-1.0214133	-1.2815827	0.8328356
-0.3550637	-0.6865057	-0.23334363	0.4472469	-0.66641283	-0.62567747	0.6275258	0.5958996	0.49933568	-0.67222553	0.4102396	0.64543617	-0.7517039	0.5844246	0.26779854	-0.57999706	0.1853903	-0.58061975	0.6474647	-0.223479	-0.6078858	-0.64105684	0.6407663	0.65782064	0.548211	0.44991532	0.07146913	-0.34584543	0.55957067	-0.6418146	-0.6648628	0.3269173	-0.3848051	-0.6705498	-0.22502258	0.43489483	-0.48017555	-0.12757635	-0.46020547	-0.1539905	-0.57223177	-0.549393	-0.5086388	0.37705684	-0.6408659	0.5465857	-0.6921554	0.6935002	0.32338694	0.219726	-0.32475945	-0.26780757	0.65282947	0.24831547	0.78606486	-0.27875322	0.4031161	-0.73777807	-0.08330254	-0.49641436	0.65645224	-0.5539319	-0.60017455	-0.2912288
0.25257233	-0.41116548	-0.4170956	0.2767467	-0.37687635	-0.34391418	0.3573602	0.4068767	-0.04846751	0.01625881	-0.25670484	-0.019591432	0.07576985	0.34026948	-0.2721002	-0.26848385	0.38462526	0.045485802	0.2304029	-0.2719858	0.014634339	0.03547935	-0.10353544	-0.059664782	0.33086607	0.44338778	0.26917514	-0.25622028	-0.1427713	-0.33669713	0.06365991	-0.27661675	0.27370107	-0.3736153	0.3073102	-0.12724097	0.15375714	-0.16247535	0.14919089	-0.11857936	-0.40291563	-0.22808059	-0.36565772	0.23885527	-0.4504607	0.2740039	0.105850495	-0.1339962	0.15668829	-0.25948825	-0.071096726	-0.09909335	0.025419874	0.11677029	0.014851563	0.25213826	0.15391743	0.08385588	0.20837156	-0.4540129	-0.014868606	0.12358214	0.13371488	-0.17352489
-0.5977299	0.043017905	0.40094256	-0.0838718	-0.0016418747	0.03658117	-0.07285862	-0.2227258	-0.034639735	-0.37002596	0.76263934	0.12987272	-0.38924402	-0.09610669	0.6020252	-0.02824073	-0.33175144	-0.31014743	0.12994872	0.36359632	-0.3409223	-0.27757525	0.4874146	0.40897214	-0.12821282	-0.1303156	-0.5532101	0.12626286	0.484069	0.06727652	-0.20350374	0.63820815	-0.7167061	-0.123871826	-0.6668649	0.694252	-0.6664297	-0.3075163	-0.42074683	-0.32117537	0.09320341	0.023515504	0.18301065	-0.0016977408	0.0058026155	0.10107028	-0.23875687	0.52957636	0.2844356	0.5833562	-0.4275849	-0.23268487	0.42920905	0.31319928	0.3938091	-0.4722854	0.35226065	-0.42208543	-0.4473627	0.26542035	0.35124648	-0.5407336	-0.17725016	-0.33646795
-0.4544277	-0.23331292	0.049171355	0.4053759	-0.064057164	-0.49298054	0.06920532	0.113262385	0.13833287	-0.3717724	0.41873068	0.05881139	-0.5029073	0.4379803	0.37667596	-0.162836	0.009801304	-0.12672023	0.5005125	0.17715633	-0.10098053	-0.1610803	0.35070857	0.44753066	-0.014831074	0.2294701	-0.2519082	-0.38398477	0.09176016	-0.4195098	-0.03356341	0.03952595	-0.4079587	-0.34570137	-0.3761567	0.3383098	-0.17509605	-0.2461399	-0.0917404	-0.096246816	-0.15565354	-0.44321433	-0.08345678	0.3617663	-0.2607622	0.4580861	-0.09651638	0.40267915	0.21370886	0.29454088	-0.27686545	-0.047925245	0.3000821	0.10311337	0.4761515	0.02300598	0.1504902	-0.35028833	0.05010853	-0.13828464	0.46435133	-0.4985187	-0.17068917	-0.23598869
-1.2727567	1.2701428	1.298785	-1.0219697	1.4542508	1.2766064	-1.2955443	-1.2458352	-1.2527025	1.1055806	1.2685497	-1.4206517	1.2194998	-1.1721958	1.376189	1.2000195	-1.0774755	1.2611033	-1.1404693	1.2950872	1.3018625	1.3930115	-0.9210889	-1.1116701	-1.4537838	-1.1137439	-1.2645603	1.1644337	-0.57016367	1.1173996	1.4415286	0.72581375	-1.2097774	1.2595344	-1.4126786	1.1434039	-1.2097328	-1.2259088	-0.80303705	-1.1167916	1.1168733	1.1859541	1.2416573	-1.1359606	1.2524501	-1.1573095	1.5310391	-1.1033436	1.1855627	1.2619195	-1.2262484	-0.92378855	-0.98970234	1.2175369	-1.1782532	-0.96854687	1.1746573	1.2379427	-0.9597571	1.2595328	-1.0984521	0.24166293	1.4110318	-1.1495126
0.34686086	0.42208913	0.13720119	0.28742507	0.4746347	-0.23373443	-0.31565237	-0.24006243	0.39952254	0.7868038	-0.51268226	-0.38933054	-0.061945297	0.12841772	-0.13610028	0.32075134	-0.10704604	0.5035314	0.007790186	0.006879375	0.45287505	0.34959206	-0.43147525	0.12783211	-0.4133237	-0.39828277	0.122540176	-0.30685818	-0.57524025	-0.10172103	0.46328986	-0.20159845	0.35222462	0.65946645	0.17660266	-0.9525919	1.0299449	0.6035847	0.743766	0.69637185	0.24649595	-0.45872495	0.060098	0.3698457	0.53249025	0.07813233	-0.09291315	-0.07068636	-0.75475985	-0.012334096	0.88810533	0.7026918	-0.8677308	-0.7724459	-0.10964369	0.63546747	-0.74657893	0.40313026	0.83713686	0.04236126	0.132415	0.22265242	-0.19329901	0.7370915
-0.31697077	-0.48207465	-0.24096121	0.22310005	-0.23343624	-0.1414075	0.11733231	0.300004	-0.55906415	-0.18707156	0.24969062	-0.13427758	0.07215251	0.25783303	-0.021837171	-0.119769506	0.3573595	0.07228319	0.32297346	0.027903663	0.1171737	0.11496177	0.06471545	-0.11620806	0.25326124	0.47897443	-0.0588369	-0.12356778	-0.04198415	-0.18207869	0.14808388	-0.29654834	-0.09536409	-0.61869353	-0.15756363	0.33510584	-0.46834987	-0.8190755	-0.15044823	-0.7827631	-0.29522088	-0.056566555	0.06011434	0.05776225	-0.5675102	0.24604282	0.47634414	-0.058763996	0.7836162	-0.05738504	-0.82526356	-0.52668715	0.30342102	0.7941119	0.028612025	0.017942568	0.7372251	-0.08003019	-0.15803425	-0.14793684	-0.11040897	-0.07479112	0.5186916	-0.8430887
-0.54765683	-0.40347454	0.23392364	0.17809975	-0.37461805	-0.46119663	0.3932603	0.24867338	0.7640998	-0.8214926	0.7426228	0.7496982	-0.93964165	0.34630817	0.65053594	-0.47714856	-0.28897887	-0.72264373	0.4686175	0.074744776	-0.7792291	-0.7973395	0.9258681	0.7361893	0.31016883	0.07747944	-0.3251556	-0.14125171	0.7255465	-0.43471584	-0.7276578	0.8143322	-0.63077235	-0.44386387	-0.48359215	0.6119556	-0.55455226	0.09010852	-0.52629226	0.09280449	-0.35404345	-0.42275104	-0.2962714	0.26380152	-0.21156228	0.3592934	-0.99886096	0.98667073	0.08788778	0.67134726	-0.20245664	-0.17670535	0.74524933	0.024148945	0.94985217	-0.5034024	0.21962452	-0.9465966	-0.25970402	-0.08301792	0.7484155	-0.692578	-0.95615757	-0.05033877
-0.34068444	0.38043767	0.31412598	-0.13611671	0.39472178	0.23076886	-0.40584955	-0.4226094	-0.42311215	0.22986649	0.32470188	-0.43553448	0.19819926	-0.3009008	0.33344346	0.4101187	-0.27998927	0.38575962	-0.20616668	0.42895657	0.3927856	0.36475164	-0.19177072	-0.013725966	-0.34636337	-0.2238078	-0.37577692	0.17223914	-0.19629003	0.31013408	0.33985484	0.016062697	-0.2650563	0.27898288	-0.31690207	0.22707918	-0.28948292	-0.288653	0.08505239	-0.2622153	0.34918997	0.21188472	0.48608592	-0.17078824	0.25462648	-0.10169169	0.34201416	-0.011782789	0.15700951	0.21172924	-0.2631582	0.05392639	-0.27416655	0.21163237	-0.278957	0.02146926	0.08943426	0.19417879	-0.26323533	0.3600038	-0.1105481	-0.058962867	0.37562457	-0.23758224
-0.2114029	-0.034945697	-0.1704773	0.008042299	0.51056224	0.29694247	-0.6246299	-0.14273295	-1.3759326	1.1126655	-0.0075453026	-1.4336456	1.2509911	-0.011818576	-0.23450552	0.7335113	0.2939317	1.2308226	-0.23967846	0.31370276	1.1894331	1.1839542	-1.0062976	-1.2430114	-0.09143378	0.38164878	-0.1889539	0.069910266	-0.8764778	0.10887237	1.462835	-0.7096371	0.16298068	-0.37505263	-0.0014153077	0.0576728	-0.37249017	-1.3322787	0.44322208	-1.2777889	0.1323187	0.48199162	0.6065968	-0.21466525	-0.29955533	0.011046537	1.3480603	-1.0364105	1.3096236	-0.4502506	-1.2801487	-1.3190523	-1.0747435	1.3872354	-1.3156487	0.47559413	1.3881512	1.195364	-0.17245014	0.1742789	-1.1339387	0.79260576	1.3340694	-1.3246145
-0.19565567	-0.022621527	-0.028090121	0.014469794	0.16294183	0.023524491	-0.2663664	-0.12450893	-0.481221	0.27897024	0.07074368	-0.39525288	0.29510704	0.022593377	-0.038611114	0.29407945	0.1249021	0.36043873	0.015570519	0.20080657	0.40820172	0.37429464	-0.19845751	-0.19684824	-0.13281614	0.14080405	-0.18711205	-0.086857684	-0.3221634	0.07624795	0.44845393	-0.2611365	-0.0023671193	-0.11071817	-0.12956412	0.11006855	-0.14108284	-0.3793743	0.14158288	-0.40275747	0.07415017	0.08452187	0.23465048	0.046676673	-0.09482473	0.014787348	0.45861807	-0.27799082	0.314998	-0.06132673	-0.37307397	-0.11153851	-0.24234101	0.33041102	-0.24241859	0.1960426	0.30015382	0.23733422	-0.0672262	0.12268984	-0.22974934	0.084114745	0.44706282	-0.34614408
0.57219857	1.115538	0.2039978	-1.3008808	-0.0066040247	1.5256817	0.0971086	-0.4666822	0.22951676	0.9156572	-0.6151584	0.6690979	1.2829942	-1.394437	-0.72337854	-0.027623829	-1.0033619	-0.72373307	-1.3856871	-0.40922746	-0.5353788	-0.6735703	-1.0924588	-1.2420756	0.16881071	-1.3101861	0.4129207	1.4344366	1.0352565	1.3005652	-0.83410597	1.0963415	0.629325	1.3410918	0.632024	-0.32047176	0.08591195	0.6737054	-1.3029659	0.47307476	0.57303923	1.3299551	-0.17181735	-1.4647858	1.3589883	-1.3134224	-0.42289928	-1.226564	-0.6058042	-0.7870776	0.5579748	-0.59742296	-0.849862	-0.45734334	-1.285651	-1.4123747	-0.5905266	1.1116052	-0.8447497	0.27689102	-1.247823	0.9997414	-0.33753237	0.55415183
-0.2670723	0.2872142	0.39339447	0.17946789	0.21997866	-0.32313564	-0.17896141	-0.29385033	0.3043541	-0.2085944	0.353543	0.021499667	-0.4555066	0.13795201	0.42296767	0.13072953	-0.37280923	-0.0035722537	0.19566351	0.3447738	-0.06938695	-0.04726202	0.3328681	0.44898018	-0.2828665	-0.27344805	-0.2518146	-0.23807557	-0.0021015066	-0.07434832	-0.008355246	0.28316233	-0.33572415	0.16583695	-0.3433901	0.104364745	0.06882574	0.3001251	0.054333746	0.28584442	0.17580386	-0.2752423	0.15394118	0.28334156	0.24689083	0.2293156	-0.40525672	0.46096942	-0.23515637	0.3740766	0.19301261	0.3750975	0.080338806	-0.28646436	0.47279218	0.08333121	-0.3023912	-0.30015624	0.20479959	0.21521026	0.46442902	-0.43961352	-0.37905648	0.29727054
0.02195123	0.7908319	0.64128065	0.5058413	0.6570913	-0.5905322	-0.61457694	-0.63994086	1.1885291	0.37918106	-0.11895312	-0.41591835	-0.62809455	0.14484586	0.39843783	0.56654304	-0.66487014	0.49137694	0.20784296	0.40340504	0.32406515	0.33791366	-0.06506287	0.5948426	-0.65453863	-0.7837033	-0.32078063	-0.54481655	-0.45205927	-0.14558624	0.45421466	0.23570427	-0.10931875	0.93647695	-0.32928377	-0.81786466	1.0877776	1.0957965	0.72438323	1.1026795	0.6308913	-0.7088872	0.27155992	0.63591725	0.9353798	0.3976081	-0.87441194	0.5492315	-0.9748154	0.4470575	1.1262556	0.7800925	-0.6021886	-1.060742	0.55432284	0.63693357	-0.8969203	0.0067784027	0.91170967	0.455923	0.56443155	-0.3188541	-1.0671642	1.1167535
0.041787516	-0.08045718	-0.113793895	-0.025515456	0.05317769	0.019968888	-0.090940535	0.0860968	-0.31176353	0.2554189	-0.2005218	-0.23582305	0.3473141	-0.029499086	-0.20653887	0.05633941	0.16898805	0.26809323	-0.060628183	-0.06828173	0.218293	0.22639473	-0.28905973	-0.29337397	0.049749646	0.12218108	0.12763502	-0.02929254	-0.24707668	0.05943647	0.29164654	-0.32273552	0.123836994	-0.08885731	0.16811797	-0.14512469	0.05685469	-0.20271255	0.18113722	-0.25071347	-0.06717537	0.12452998	0.038422164	0.013783378	-0.08457524	-0.016508473	0.3644477	-0.35391313	0.13952221	-0.28369603	-0.13869584	-0.1453363	-0.15591358	0.23814768	-0.35228044	0.17889012	0.14382115	0.3368475	0.06526433	0.009689147	-0.30462307	0.18173748	0.36861187	-0.17526776
0.21121892	-0.21273592	-0.26280314	-0.2021617	-0.31243825	0.21920459	0.22156994	0.2527955	-0.048704248	0.009113094	-0.2288839	0.13563336	0.27428597	-0.027324677	-0.25864378	-0.264179	0.15791596	-0.14470877	-0.19323175	-0.25497717	-0.044832896	-0.107193835	-0.18371923	-0.31045923	0.35033336	0.13877223	0.2177359	0.18375044	0.10700676	0.080250025	-0.23123504	-0.028138686	0.23370288	-0.14899297	0.2819084	-0.06193181	-0.10657688	-0.13238919	-0.15717903	-0.1162297	-0.22372642	0.21652238	-0.22175185	-0.2554984	-0.16490506	-0.19748048	0.14667623	-0.31687996	0.13991947	-0.32975242	-0.106383026	-0.39899227	0.057219677	0.19603606	-0.29956466	-0.19444898	0.18368149	0.15632056	-0.12861048	-0.24357405	-0.31274137	0.31295294	0.15959035	-0.13506345
-0.24536563	0.24286947	0.32352668	0.109453954	0.28014806	-0.08853292	-0.3043102	-0.26870295	-0.08243559	0.037337936	0.18174833	-0.2570157	-0.12592945	0.039525565	0.3242696	0.2699333	-0.21711883	0.22791353	0.12313946	0.2935448	0.19038147	0.15787368	0.06638732	0.25888348	-0.32219222	-0.11950648	-0.3282124	-0.18583314	-0.17868309	-0.050475474	0.3098437	-0.00041895753	-0.20357953	0.16752662	-0.25895715	0.039670173	0.038921442	-0.0036486662	0.21332693	0.080881864	0.20315301	-0.15515834	0.31746647	0.20193751	0.1333078	0.14093271	0.028109532	0.17041677	-0.1335167	0.26485068	0.0053584664	0.19786933	-0.11018078	-0.08162289	0.1647442	0.14351076	-0.1760772	-0.034151513	0.12411899	0.2727356	0.14108129	-0.2092629	-0.04289941	0.03716539
-0.78254884	0.43749976	0.785972	0.9348418	0.6199107	-1.1466869	-0.5412348	-0.5184267	1.0137415	-0.35034794	0.74058676	-0.3320943	-1.2261263	0.7557332	0.9110875	0.41799605	-0.6621635	0.3067336	0.961048	0.7527733	0.10375792	0.14439695	0.7113548	1.1070766	-0.6609118	-0.5472118	-0.7722322	-1.0146466	-0.32539254	-0.71397096	0.3909727	0.4189017	-0.84413457	0.3920332	-0.9335367	-0.14314729	0.634383	0.7736656	0.63169485	0.8011151	0.40210718	-1.0474724	0.4104798	1.0174983	0.51232433	0.97268975	-0.9846923	1.2252691	-0.69652116	0.972077	0.7374838	0.8564043	0.03297359	-0.8111508	1.1421059	0.6537794	-0.72564137	-0.7385058	0.7799647	0.40762982	1.1175187	-1.0016407	-1.1324217	0.81708634
0.74255276	-0.46828055	-0.5956146	0.39384517	-0.4083931	-0.33405048	0.422741	0.59007066	-0.12905024	0.8372151	-0.89789164	-0.3397074	0.62031084	0.40681437	-0.74504924	-0.349544	0.5492389	0.4659483	0.167423	-0.5601659	0.4988666	0.44170243	-0.7660037	-0.5075778	0.49432665	0.3738799	0.69546676	-0.37494364	-0.60107166	-0.39621705	0.42794216	-0.56905377	0.7128495	-0.2533035	0.78527427	-0.97945386	1.124171	-0.07641535	0.68679255	0.077699564	-0.5700823	-0.3859355	-0.5532412	0.37283027	-0.3714351	0.1442456	0.47775894	-0.6290877	-0.021677157	-0.7065586	0.31490207	0.05342543	-0.93674326	-0.07448786	-0.6858539	0.61619914	-0.09443953	0.7279488	0.8207336	-0.69084597	-0.481946	0.6744238	0.36949885	0.15399115
-0.16681533	-0.33586422	-0.1962545	0.1915626	-0.24680136	-0.27135673	0.1529952	0.30390772	-0.080361	-0.25975564	0.11974447	0.08188701	-0.1733582	0.22570719	0.04860024	-0.17018773	0.16840631	-0.062437303	0.3336397	-0.065980144	-0.100304455	-0.012136472	0.20217626	0.1487636	0.24557252	0.34133032	0.025965748	-0.20000628	0.09165497	-0.3113235	-0.08112709	-0.057090655	-0.12438054	-0.35841748	-0.13195279	0.16238435	-0.19781765	-0.32554275	-0.1242012	-0.21559069	-0.23465642	-0.14869694	-0.15021567	0.23774108	-0.35239628	0.29444185	0.06805693	0.121193916	0.24939361	0.03911655	-0.29683837	-0.16665423	0.23038726	0.2819983	0.15527709	0.017212516	0.27210903	-0.19027899	-0.060205113	-0.25126943	0.1784997	-0.20262448	0.021507537	-0.32145968
0.03304911	-0.14394161	-0.19929324	-0.048378848	-0.18874614	0.008376856	0.119489625	0.18810357	-0.14696574	-0.037857156	-0.06419288	0.11690044	0.13656521	-0.017799657	-0.1862762	-0.1899842	0.12511623	-0.078222826	0.024086747	-0.15855798	-0.06343015	-0.069862425	0.03934515	-0.15434945	0.21669261	0.15941717	0.06453186	0.059206884	0.121921904	-0.053061847	-0.05789268	-0.064288415	0.100495525	-0.25112605	0.06784257	0.048979085	-0.11581792	-0.16869034	-0.15882209	-0.21470433	-0.10753642	0.11765047	-0.0591158	-0.11470261	-0.15132244	0.003189732	0.061084054	-0.13465394	0.16444825	-0.16609445	-0.22369464	-0.29269242	0.08224885	0.22112437	-0.07467383	-0.085802905	0.2741216	0.03222955	-0.1428508	-0.08390844	-0.09624362	0.06718794	0.13003922	-0.18384606
0.050789267	0.037031785	-0.0038165664	0.06438423	0.12572317	0.0063898237	-0.1683277	-0.063771546	-0.19550775	0.25981188	-0.14104632	-0.24286598	0.23998801	-0.028425964	-0.040756688	0.15468845	0.03207518	0.30026025	-0.096132815	0.004252854	0.23538876	0.30946344	-0.289611	-0.19764683	-0.10978725	0.039930686	0.040875424	-0.03966629	-0.19589177	0.030713394	0.25422576	-0.21185721	0.10246222	0.08405573	0.037362903	-0.18533012	0.17179899	-0.13339756	0.17221794	-0.09550808	0.03333509	0.07852273	0.11902001	0.032922506	0.015070817	-0.02498223	0.3361053	-0.20920084	0.032697234	-0.05262784	0.013793858	0.061218042	-0.205506	0.07487042	-0.2771455	0.14452228	0.0067179995	0.3611698	0.1133988	-0.0023536568	-0.1119953	0.13359857	0.23494926	-0.041324575
-0.84344184	-0.722948	-0.15566862	0.23457055	-0.7453898	-0.48029205	0.720125	0.56142193	0.30978814	-0.75776386	0.8738997	0.836177	-0.6659139	0.4224042	0.8268198	-0.70994574	-0.03883714	-0.786933	0.49909654	-0.0882817	-0.8073151	-0.81014144	0.7174365	0.7415992	0.81295025	0.6967858	-0.30423144	-0.012349946	0.9221585	-0.511513	-0.99075973	0.90632945	-0.8382305	-0.8832253	-0.7950903	0.8785403	-1.1478415	-0.77449787	-0.9389519	-0.92636913	-0.5387534	-0.3095331	-0.48792478	0.17420432	-0.88369274	0.46792114	-0.68557256	0.79801846	0.925952	0.8133508	-1.0711089	-0.9573833	0.78581697	0.9373617	0.74045193	-1.1125464	0.9419728	-0.78855985	-0.8886398	-0.29117504	0.6219025	-0.7602048	-0.66100824	-0.9253724
0.007920193	-0.5212425	-0.30489123	-0.27863932	-0.8583421	-0.05310021	0.8532517	0.53972614	0.5607662	-0.63028544	0.274534	1.1006763	-0.5226593	0.0022851538	0.042272676	-0.79917943	-0.14922503	-1.0640624	0.12451438	-0.45749617	-1.0465229	-1.003896	0.6262666	0.23654893	0.9601698	0.1427007	0.25263166	0.38654298	1.1661212	-0.19157472	-1.2100912	1.0864525	-0.25297174	-0.52191657	0.12249126	0.5721569	-0.61773616	0.102286436	-1.0050353	-0.0557636	-0.5383806	0.039020948	-0.5845047	-0.30642647	-0.39841068	-0.062296145	-0.9462744	0.4877113	0.20162602	0.08952533	-0.22781068	-0.80494684	0.7088767	0.21049784	0.5527189	-1.2405517	0.43346906	-0.65225375	-0.67529625	-0.3798654	0.25598705	-0.24424371	-0.80819595	-0.091422625
-0.9689049	0.7324176	0.6683226	-0.7796261	0.9230863	0.9434949	-0.83592576	-0.8068909	-1.1240433	0.6938333	0.8576741	-1.0199687	1.0431492	-0.76979077	0.67121124	0.80414003	-0.51750064	0.7596099	-0.82846564	0.89314485	0.91020554	0.89680463	-0.6901359	-1.0257361	-0.7873228	-0.42865866	-0.83940923	0.88343227	-0.21674909	0.7698843	0.96455216	0.16960251	-0.7230748	0.51138	-0.9233314	0.97561306	-1.1091057	-1.2395735	-0.6142501	-1.1658479	0.6911994	0.88066834	0.9228858	-0.92887676	0.55826485	-0.7962699	1.273577	-0.87895334	1.2251536	0.44578922	-1.2481866	-1.0529683	-0.47222483	1.2675862	-1.0497961	-0.76859397	1.2416319	0.9412969	-0.812161	0.82675	-0.9220776	0.33989653	1.2524685	-1.2388065
0.4389724	-0.3005003	-0.32225612	0.33001846	-0.18258378	-0.35286683	0.27713656	0.416628	0.21421173	0.3244944	-0.5160187	-0.06286883	0.06570486	0.31794426	-0.31706366	-0.119791314	0.3098711	0.21660931	0.2134322	-0.3626801	0.19537441	0.18924586	-0.3382249	-0.05243591	0.17477284	0.21201758	0.37476906	-0.2880267	-0.3072552	-0.3699431	0.15478502	-0.3120778	0.4370893	-0.109093904	0.3301643	-0.6358803	0.6913906	0.1711912	0.4829464	0.20996404	-0.3828376	-0.45425645	-0.40228632	0.35840786	-0.1353363	0.14768694	0.085018694	-0.23085219	-0.2037698	-0.29136777	0.3509364	0.24892236	-0.34101316	-0.24027517	-0.19995095	0.3485292	-0.29546314	0.33826417	0.6276077	-0.46742952	-0.068483	0.22483946	0.036593217	0.32795763
-1.2332746	-1.2810527	-0.3206123	1.0652002	-1.0234278	-1.2900004	0.9984582	1.1546532	1.286073	-1.0537475	1.1292266	1.1828142	-1.2209874	1.2141932	1.0990674	-0.9664807	0.3434092	-1.0087894	1.1105314	-0.31218112	-1.0641328	-1.1039886	1.0780176	1.2182976	0.9081272	1.1363671	-0.5026353	-0.80382484	0.98932046	-1.1531434	-1.1208466	1.0511402	-1.0074902	-1.2988149	-1.1728983	1.0244809	-1.1136096	-1.0359987	-0.8531499	-0.8691018	-1.1068953	-1.2567482	-1.1745132	0.98277795	-1.2412775	1.0842924	-1.2035447	1.2008036	0.9211189	0.94737154	-1.1284647	-0.6927493	1.0339736	0.9300659	1.1602147	-0.9202211	0.8468185	-1.1828493	-0.76508933	-1.0947472	1.1865247	-1.1434282	-1.1467459	-0.9936731
-0.6257755	0.9614682	0.7907592	-0.5562832	0.8969997	0.72516084	-0.807764	-0.91816294	-0.6908027	0.6707724	0.64839286	-0.7001606	0.58561546	-0.7602976	0.56479686	0.75607854	-0.902812	0.6239525	-0.72730047	0.71935487	0.60259944	0.6274315	-0.4806063	-0.34800538	-0.86217475	-0.9049407	-0.71475327	0.55671364	-0.18629584	0.79305816	0.65349257	0.57682467	-0.59259397	0.9635023	-0.6948742	0.45964706	-0.4851495	-0.3648656	-0.17533645	-0.4068098	0.8957438	0.70225054	0.78387195	-0.58501077	0.98204476	-0.558092	0.6703801	-0.3210729	0.23733383	0.45087847	-0.423862	0.022352204	-0.64141184	0.28564748	-0.6342622	-0.2999778	0.14694466	0.57445395	-0.5032345	0.88610256	-0.41609758	-0.048470147	0.6333549	-0.312368
0.28326294	-0.5493764	-0.43359587	0.5723085	-0.25524887	-0.5532251	0.18632054	0.4619489	-0.28470078	0.2724692	-0.45338818	-0.42570323	0.22550498	0.60132116	-0.40869203	-0.082204714	0.5539839	0.45709965	0.42689568	-0.24156709	0.4977441	0.4774698	-0.36185274	-0.16030386	0.31556	0.45790476	0.38265157	-0.5669036	-0.5868749	-0.5425208	0.52962124	-0.5606712	0.41083547	-0.5001522	0.38678265	-0.4396308	0.4864754	-0.29174778	0.5820158	-0.18128568	-0.5185651	-0.5127411	-0.2673436	0.50667435	-0.5295187	0.46330285	0.5069391	-0.36445892	0.24639264	-0.36824244	-0.118742086	0.007475959	-0.30672464	0.2551002	-0.2773923	0.6011899	0.10478027	0.3493282	0.5973438	-0.5031747	-0.12592848	0.2862281	0.4325283	-0.18469433
-0.8300607	0.027157446	0.36432865	0.09969708	0.16786726	-0.101651624	-0.19672796	-0.26496494	-0.29775155	-0.19901955	0.7172372	-0.18494964	-0.2153293	-0.0033640987	0.63192314	0.21326202	-0.26099446	0.025657736	0.24475114	0.49433628	0.05081049	0.088833876	0.27331278	0.3358657	-0.22173434	-0.0025095344	-0.58334446	-0.06706116	0.0074765524	0.0066860667	0.13077036	0.16323334	-0.65945643	-0.2023395	-0.69379705	0.5101028	-0.50383586	-0.49456367	-0.20151347	-0.3764901	0.1310381	0.027025752	0.4563016	0.064321764	-0.032672178	0.1958135	0.13795777	0.29628718	0.43549785	0.5771832	-0.5651242	-0.17656302	0.2628811	0.36296934	0.22540273	-0.13075176	0.36817494	-0.30750984	-0.26099214	0.34144324	0.21506162	-0.5197247	0.17770608	-0.4612511
0.3302506	0.2654069	0.049118552	-0.25256845	-0.055475425	0.20631938	0.23296781	-0.03317557	0.6467147	0.021478692	-0.22730401	0.43924993	-0.11909741	-0.26545373	-0.12002679	-0.18508744	-0.31985348	-0.38413635	-0.25092682	-0.26356125	-0.3614865	-0.4096748	-0.03561775	-0.009305113	0.054200508	-0.45961985	0.25904456	0.27674723	0.32500988	0.16976352	-0.43481147	0.48686776	0.14310469	0.45661834	0.23403561	-0.26142022	0.36758506	0.63303155	-0.18170297	0.57666427	0.016709864	0.06651332	-0.36923328	-0.22144045	0.42606515	-0.22687377	-0.64537644	0.11192161	-0.56072605	-0.054263722	0.53205186	0.20693664	0.011788217	-0.54964757	0.05861471	-0.20884675	-0.4878946	-0.04098694	0.126318	-0.11524179	0.07314467	0.09560584	-0.6989703	0.59184873
0.223588	-0.77759063	-0.48113194	0.5819836	-0.60612005	-0.8825814	0.6102023	0.7806813	0.29509422	-0.32908288	-0.2631997	0.24263576	-0.3535811	0.78456336	-0.266975	-0.5423897	0.5795582	-0.124849714	0.7412551	-0.47290206	-0.10321131	-0.093947016	0.18205889	0.26178238	0.5658322	0.6183119	0.4579892	-0.59333885	-0.12374704	-0.8422917	-0.066172935	-0.32807392	0.17886692	-0.6475331	0.23065732	-0.11230815	0.20750001	-0.10803708	0.21101354	-0.03890396	-0.83926904	-0.83975625	-0.7121948	0.6371707	-0.7225937	0.59578156	-0.04610773	0.14785372	0.1685629	-0.22858803	-0.046017725	-0.03817289	0.33965504	0.07289462	0.37664822	0.2595422	0.14862445	-0.31720388	0.6046314	-0.82286936	0.3136053	-0.13132831	-0.1300737	-0.12645683
-0.40267923	-0.84954137	-0.30102038	0.43473497	-0.7828977	-0.7041562	0.7265082	0.75421864	0.37095964	-0.83077943	0.5094148	0.7247181	-0.6733176	0.6366232	0.31189036	-0.7714284	0.28473973	-0.6579298	0.7388848	-0.1919675	-0.71664035	-0.75460285	0.72469276	0.63944083	0.6761599	0.6150991	-0.05413911	-0.3705266	0.6243351	-0.6867569	-0.72908974	0.36739138	-0.45984766	-0.9031082	-0.28833333	0.6415085	-0.6232478	-0.37586883	-0.5537009	-0.41556355	-0.7090724	-0.47736114	-0.6037609	0.42442995	-0.7579131	0.5862525	-0.59982204	0.75215554	0.61191815	0.27284527	-0.6436706	-0.48246437	0.7545874	0.49173728	0.71519065	-0.42950833	0.6186767	-0.82022154	-0.30613208	-0.5673206	0.6291192	-0.63526994	-0.533286	-0.5647486
-0.026576558	0.72047585	0.3774681	0.6591167	0.8951964	-0.65254694	-0.8424738	-0.540247	0.119726636	1.1994346	-0.3367337	-1.1037667	-0.2792733	0.4073953	0.25378734	0.9308385	-0.19901332	1.11973	0.34597215	0.51967347	1.0780203	1.0509843	-0.66697335	0.36926168	-0.7806374	-0.41638666	-0.23939428	-0.85653853	-1.1650616	-0.31084552	1.0994798	-0.5239682	0.055029027	0.7549085	-0.23999104	-1.1823848	1.226891	0.5861403	1.1654209	0.789298	0.563272	-0.7708323	0.5715916	0.77775794	0.60082144	0.6071321	0.16898051	0.117087714	-0.7774067	0.28650862	0.9339288	0.96552944	-1.283225	-0.7791073	0.12620285	1.0846546	-0.915476	0.5866523	1.0532157	0.3512199	0.43306813	-0.21431354	-0.011921545	0.8177565
0.41033423	-0.59263587	-0.47003108	0.46331164	-0.29968166	-0.59627175	0.25341097	0.58133584	-0.27425388	0.2314367	-0.42861125	-0.30420494	0.16580172	0.5578733	-0.39622384	-0.16460876	0.54415274	0.3524064	0.46403265	-0.3913787	0.3694712	0.4145105	-0.34491396	-0.14909837	0.3705907	0.48198903	0.39722311	-0.52209306	-0.4560654	-0.5013825	0.38750425	-0.52533084	0.4513714	-0.4845429	0.4110022	-0.48272854	0.44812584	-0.2736909	0.48675707	-0.16645958	-0.50820565	-0.4752916	-0.34055474	0.5360867	-0.5143803	0.422598	0.4082874	-0.27857012	0.22017917	-0.36266965	-0.1095509	0.0081024915	-0.22218414	0.2010873	-0.21361837	0.5150512	0.15483266	0.32065684	0.536497	-0.5947573	-0.13861601	0.22604503	0.32991025	-0.11757331
0.15920037	-0.14806466	-0.14757654	-0.17872864	-0.4182194	0.10337196	0.44169462	0.3413588	0.46354088	-0.2617641	-0.04892915	0.5282749	-0.10777722	-0.08332038	-0.13786112	-0.41346982	-0.01561219	-0.44307238	0.007082787	-0.35059166	-0.5476548	-0.54133654	0.11584823	0.0664452	0.37092194	0.015396062	0.25533047	0.17982599	0.47648755	0.048721313	-0.54554516	0.30486837	0.05537013	-0.124585964	0.16447143	0.12809458	-0.033957023	0.17355406	-0.3652464	0.11319737	-0.31291467	0.040742833	-0.4449724	-0.18169829	-0.06562257	-0.15989766	-0.46833473	0.075772256	-0.10705237	-0.11364494	0.020800134	-0.17919338	0.30001163	-0.12533575	0.13301311	-0.30716372	0.061388034	-0.21420622	-0.19523677	-0.35020128	0.0025696943	0.06216308	-0.450405	0.1717046
-0.92064035	0.25146818	0.5503563	-0.17988515	0.39271706	0.27042133	-0.45104116	-0.43622106	-0.49696878	-0.12051033	0.88742816	-0.26775455	-0.057332393	-0.22722098	0.7606307	0.36961636	-0.48077506	0.10615081	-0.13032949	0.65817684	0.11744652	0.12849537	0.24277793	0.15463568	-0.3397504	-0.2727566	-0.80572313	0.15632111	0.1465224	0.25310627	0.15081143	0.55313593	-0.8538906	0.03516921	-0.8473603	0.73740053	-0.6787085	-0.6130413	-0.32087433	-0.5371057	0.3295192	0.2652209	0.5130612	-0.15899138	0.21911928	-0.027204657	0.30658147	0.33679312	0.46851072	0.6501752	-0.6023373	-0.13848808	0.16245498	0.44889283	0.049822174	-0.2982095	0.3482103	-0.16972415	-0.4452813	0.51564676	0.049967792	-0.5083052	0.33085042	-0.6181152
0.52509123	0.057161216	-0.29034454	-0.5752229	-0.51956797	0.5790878	0.4694207	0.2286797	0.3813659	0.08312152	-0.4771177	0.6537309	0.38165224	-0.45765933	-0.544024	-0.43907368	-0.07364415	-0.6158218	-0.4747693	-0.506656	-0.51941067	-0.5594723	-0.18522714	-0.4697935	0.5406749	-0.2320386	0.5360382	0.6034773	0.54162115	0.43073383	-0.6525874	0.4390538	0.4706298	0.31204236	0.5531062	-0.14710374	0.15123235	0.38638836	-0.5835616	0.2202747	-0.09780149	0.45182273	-0.45840353	-0.6519294	0.23584655	-0.56255984	-0.38678464	-0.34075892	-0.22320218	-0.4670945	0.32808378	-0.35719234	-0.018694222	-0.22794683	-0.32466063	-0.6686086	-0.15789284	0.19583328	-0.32625976	-0.27566707	-0.41562536	0.4688972	-0.31099603	0.26909506
-0.26279142	-0.4328837	-0.10812541	0.57480985	-0.46225825	-0.7990651	0.5040012	0.46258697	0.6637411	-0.51938295	0.25370243	0.45968425	-0.69515157	0.70802313	0.21334301	-0.4288871	0.13410197	-0.3687056	0.6901123	-0.11471039	-0.4726096	-0.45036426	0.45044252	0.5701557	0.31007367	0.21744621	0.12852494	-0.5913904	0.23881696	-0.65369016	-0.37849724	0.17700382	-0.25222397	-0.48122302	-0.16698198	0.16996	-0.10074234	0.0639285	-0.12864016	0.11478861	-0.44391865	-0.78515714	-0.446377	0.68693686	-0.42514458	0.61504257	-0.6719861	0.6349149	0.05779649	0.1829854	-0.073686525	0.05754961	0.4569982	-0.060052235	0.7025299	-0.003755075	0.072792575	-0.5573593	0.32500798	-0.39915943	0.6629991	-0.46309498	-0.6378789	-0.06428974
-0.5650074	-0.20851137	0.07715744	0.257799	0.015878102	-0.3547696	-0.13382	-0.0001361709	-0.29067624	-0.19284055	0.4363307	-0.23706627	-0.23520257	0.29458058	0.2793299	0.10466535	0.04932393	0.100268126	0.36678153	0.29332188	0.1461697	0.11605769	0.23498474	0.25504082	-0.043908484	0.27039436	-0.3232519	-0.28339854	-0.11457668	-0.24745375	0.20649333	-0.10375861	-0.35819986	-0.36602733	-0.42471722	0.30119804	-0.3463181	-0.5113919	0.068742156	-0.3768161	-0.1000541	-0.22114804	0.23152594	0.27214786	-0.30833244	0.443994	0.17487465	0.228369	0.34581804	0.2638665	-0.46470946	-0.110818066	0.21262607	0.3535318	0.26852518	0.14847493	0.2995851	-0.19039819	-0.051893685	0.058053553	0.24700929	-0.40687686	0.17705043	-0.4458514
-0.95861065	0.65419275	0.85930747	-0.6845629	0.66236717	0.77937555	-0.736833	-0.758856	-0.75503594	0.23238294	1.020653	-0.49232817	0.4809175	-0.7092212	0.9915852	0.5985989	-0.7312361	0.30606443	-0.6346764	0.8522353	0.33208108	0.4335277	-0.124531634	-0.4330173	-0.693548	-0.6158395	-0.9110362	0.8332336	0.26438335	0.6985667	0.45167732	0.9870118	-0.9540093	0.40494823	-1.0810103	1.0995106	-1.0696784	-0.9421202	-0.87673	-0.9337849	0.65985644	0.72097397	0.7096517	-0.83799034	0.5684917	-0.70154595	0.66320574	-0.1815302	0.946473	0.91925126	-1.0200726	-0.79873383	-0.16903086	0.89944047	-0.47231236	-1.0395747	0.8719568	0.25618738	-0.85059106	0.7817842	-0.49341905	-0.23388197	0.71649283	-0.9445779
-0.07261349	0.09057899	0.18447667	0.44250768	0.38367128	-0.49735096	-0.3683816	-0.1747431	0.039434183	0.24489887	-0.045876283	-0.47466853	-0.206252	0.43820006	0.16143292	0.34240916	0.0711514	0.5039024	0.35293663	0.23368993	0.49915728	0.51842505	-0.08448648	0.24325809	-0.335238	-0.026773816	-0.12810643	-0.5558704	-0.5131601	-0.34341884	0.546958	-0.2921619	-0.04305428	0.106206685	-0.23117623	-0.3918433	0.5250502	0.11186254	0.61128247	0.23124868	0.06370173	-0.5060987	0.18563628	0.52782047	0.063086964	0.45738348	0.113915995	0.17959131	-0.19544782	0.25552574	0.31557283	0.47851184	-0.33812144	-0.22364594	0.14686842	0.54840195	-0.28521606	0.058553297	0.5720923	0.08257775	0.2645242	-0.19412413	0.0549067	0.1720704
-0.35459787	0.37393627	0.4173563	0.012577989	0.44202155	-0.034861192	-0.41037932	-0.4379029	-0.12813208	0.111688115	0.3852035	-0.36602074	-0.110504486	-0.074566595	0.41860646	0.37373748	-0.401757	0.28590953	-0.016433401	0.4698564	0.2658177	0.21760102	0.066990815	0.19291501	-0.37285444	-0.33369654	-0.38119346	-0.12266951	-0.14676142	0.105478026	0.32493725	0.097003475	-0.3741524	0.28963506	-0.45847148	0.12637612	-0.085818194	-0.022768155	0.13482635	-0.013854943	0.3929156	0.019892745	0.44187352	0.053381804	0.3165613	0.12242342	0.0026181904	0.22802094	-0.03935778	0.41397938	-0.023454195	0.19711715	-0.123120934	-0.10626924	0.10623523	0.15554234	-0.10080243	-0.056406304	-0.0463257	0.35084012	0.117594115	-0.31873822	0.035320126	0.0362182
-0.84242845	0.06413012	0.37032053	-0.09813827	0.064618446	0.116147384	-0.20125698	-0.2336192	-0.45692754	-0.34331855	0.8889781	-0.11024893	-0.12981614	-0.08880164	0.73867035	0.11066462	-0.24724725	-0.054422524	0.075005844	0.47667035	-0.025158921	-0.041877724	0.42685634	0.19928168	-0.11645019	0.04282867	-0.62590873	0.18226789	0.2354208	0.05116922	0.016571704	0.34289142	-0.7280425	-0.2934264	-0.78335017	0.72974956	-0.88591254	-0.69543356	-0.5241955	-0.67210805	0.20543624	0.19055769	0.4242834	-0.12650411	-0.18182246	0.05660459	0.14933464	0.40696776	0.75447464	0.65336925	-0.8091701	-0.5055595	0.3943975	0.7065073	0.2265759	-0.41937658	0.70102274	-0.307991	-0.57410145	0.4403927	0.09734056	-0.60657686	0.23883814	-0.7142552
-0.5831975	1.0315851	0.9059848	-1.0276537	0.9968731	1.2672098	-0.8750069	-0.9665323	-0.91675794	1.0984699	0.6970543	-0.72565114	1.1643816	-1.0262814	0.5366806	0.8389754	-0.8849749	0.6715757	-1.1314026	0.74232477	0.8790972	0.8136869	-1.1114529	-1.2524862	-0.96363187	-1.0065317	-0.70209575	1.1734143	0.01721844	1.0090528	0.65845895	0.7844215	-0.6081102	1.1921486	-0.65594393	0.91453505	-0.99968797	-0.72727156	-1.1485258	-0.83997834	0.88884014	1.094987	0.8726077	-1.1523138	1.0943722	-1.0865586	1.056747	-1.3517917	0.74456906	0.44647714	-0.8117385	-1.3072096	-0.9406763	0.92694914	-1.280316	-1.1214595	0.87181985	1.2802075	-0.99768275	0.8825522	-1.071127	0.4481384	1.0151811	-0.8339629
-0.2178928	0.044968285	0.15264428	-0.42001444	-0.21444286	0.31644157	0.18030378	-0.06474924	0.082708165	-0.22175734	0.27780083	0.45340595	-0.04874849	-0.3636934	0.14808376	-0.17188038	-0.32873034	-0.5208084	-0.21486998	0.012115933	-0.47605383	-0.5403412	0.2898299	-0.050324503	0.24770492	-0.1785019	-0.14538978	0.51892895	0.63913167	0.24575213	-0.5177333	0.7164712	-0.27688137	-0.03155177	-0.09128	0.47065294	-0.4983085	-0.08376748	-0.7362879	-0.20111892	0.081690945	0.35350102	0.0066075614	-0.41901413	0.12135579	-0.3425085	-0.3255568	0.18852739	0.18313079	0.12008308	-0.24935335	-0.4442841	0.264425	0.20729998	0.11066976	-0.7535709	0.29541335	-0.28540915	-0.62134284	0.12874171	-0.09235878	-0.07984112	-0.2811044	-0.16559161
-0.23871376	0.22439712	0.36318743	-0.54686236	-0.092340805	0.49830323	0.036208253	-0.274363	-0.03185051	-0.21761781	0.4098618	0.3539267	-0.025498575	-0.4417095	0.29507777	-0.05565163	-0.5546321	-0.5016142	-0.32669768	0.08606226	-0.4261833	-0.42442575	0.21316063	-0.05029943	0.016601216	-0.3277812	-0.24269839	0.68465513	0.7035928	0.3753104	-0.5003657	0.95080715	-0.3796872	0.11777194	-0.23832314	0.55848837	-0.60918677	-0.13476169	-0.78182155	-0.23258786	0.20247194	0.44567877	0.07504961	-0.52348226	0.24517994	-0.43733004	-0.25476128	0.22397579	0.18348531	0.24279064	-0.25065494	-0.5454767	0.32168618	0.24892275	0.02648613	-0.94844943	0.32381243	-0.23725513	-0.7329611	0.35409528	-0.13419946	-0.14757052	-0.21564879	-0.19897969
0.44961354	0.106178805	-0.24116188	-0.12975977	-0.07396658	0.24265122	0.08049298	0.13941813	0.118158415	0.44357368	-0.5224837	-0.001495855	0.3649477	-0.090251654	-0.3785687	-0.06957778	0.05985529	0.12260052	-0.23082568	-0.3201706	0.113811225	0.08347431	-0.46495613	-0.36805114	0.14796115	-0.07606828	0.32314947	0.1463275	-0.07320112	0.14930104	0.013744594	-0.13384923	0.395552	0.25602055	0.35264564	-0.45371506	0.40059343	0.2493093	0.18882878	0.20617524	-0.061382093	0.081825666	-0.1598649	-0.11236874	0.056786384	-0.20878974	0.049759388	-0.37818268	-0.2870861	-0.3488539	0.30747208	0.12044128	-0.4720078	-0.18419969	-0.46033895	0.04125771	-0.2186172	0.45019257	0.1374319	-0.22452867	-0.31494415	0.4233316	0.010625047	0.28406328
-0.75945574	-0.31829637	0.11540656	-0.22369498	-0.51067173	0.094661616	0.33938134	0.12424884	-0.12061919	-0.6850003	0.8477454	0.5988774	-0.30866525	-0.12109743	0.69729	-0.40733874	-0.24260463	-0.67576194	0.1941611	0.14413822	-0.67198724	-0.6884881	0.61213595	0.34237033	0.5306694	0.24952157	-0.45455554	0.4980399	0.9961574	0.0041744886	-0.7706122	1.1410406	-0.8077112	-0.6015402	-0.6051998	1.0529623	-1.1148815	-0.6672825	-1.1508896	-0.7704156	-0.1981337	0.22568996	-0.06760635	-0.37565976	-0.5071323	-0.032777946	-0.33209172	0.5528237	0.87253547	0.6517158	-0.9214608	-1.1246881	0.71342653	0.8805916	0.37574357	-1.2304347	0.9493923	-0.5599777	-0.90142506	0.17408182	0.19641395	-0.5714741	-0.22648926	-0.8227576
-0.958643	0.82694703	0.8673869	-0.77089775	0.9394624	0.912704	-0.89539945	-0.80304796	-0.95124817	0.68237257	1.0347493	-0.87516034	0.8863444	-0.8642682	1.0509216	0.8088209	-0.7161422	0.8523465	-0.8276122	0.9100983	0.93180364	0.9681745	-0.7069118	-0.9626227	-1.050137	-0.7600008	-0.89987105	0.90481	-0.18092218	0.78416926	0.9834715	0.9088583	-0.908229	0.87848186	-1.0860114	1.0889989	-1.0476292	-1.1030118	-1.0967885	-0.9418607	0.7441952	0.89697105	0.8785293	-0.9676787	0.8222803	-0.9167032	1.1378932	-0.96716225	1.062758	1.2455916	-1.0808245	-1.1460001	-0.5897992	1.103047	-0.8490947	-1.0534487	1.1614054	0.8549699	-0.7996423	0.8601645	-0.88871473	0.26862806	1.0423586	-1.0516843
-0.77365184	0.7492552	0.7562395	-0.17109203	0.8103019	0.2776066	-0.79066557	-0.7361283	-0.46161968	0.4233289	0.8083211	-0.71804374	0.104395986	-0.43063065	0.711887	0.70922315	-0.67290246	0.630467	-0.264809	0.7750874	0.63724446	0.6942842	-0.1750484	0.08066402	-0.79611903	-0.6840306	-0.78391576	0.092127204	-0.39500606	0.3749968	0.79419416	0.3535318	-0.7974888	0.7235043	-0.8320226	0.3609693	-0.27932015	-0.32902032	0.17153776	-0.15740205	0.62990683	0.30238304	0.75694877	-0.1719435	0.69447315	-0.14245434	0.5061766	0.17222352	0.048177723	0.6837714	-0.31286484	0.2092176	-0.4197761	0.118772835	-0.18159579	0.094143	-0.08593384	0.30576417	-0.22867754	0.6574767	-0.023856863	-0.44770902	0.40796378	-0.2900384
-0.5975779	-0.34728718	0.08840586	0.5360264	-0.21258198	-0.8476256	0.24771485	0.30509725	0.7903106	-0.601994	0.6269545	0.39018723	-0.73180974	0.7538699	0.43992066	-0.31661507	-0.03106255	-0.29474297	0.6623639	0.028937353	-0.4640061	-0.43886948	0.5972983	0.64942193	0.08126082	0.24525182	-0.26919192	-0.41065338	0.42043558	-0.69971335	-0.3637909	0.5551058	-0.5258608	-0.40239137	-0.45723268	0.4703624	-0.22724846	-0.0521255	-0.1557525	0.04414517	-0.3772854	-0.6368581	-0.32325718	0.42775208	-0.2961702	0.60329324	-0.6834445	0.7735406	0.17247307	0.3850472	-0.20175518	-0.017527007	0.5095507	0.048415694	0.70246905	-0.10753715	0.16516127	-0.67407227	0.08392496	-0.38646173	0.5646403	-0.6281181	-0.7287622	-0.08342182
0.43587026	0.2817067	-0.05117486	-0.76367867	-0.32740763	0.8000452	0.3150625	0.0016197076	0.38315642	0.14170907	-0.36479333	0.6915647	0.44735372	-0.72968674	-0.47550616	-0.33085507	-0.3728428	-0.634145	-0.744556	-0.4382527	-0.58065295	-0.6282618	-0.2894483	-0.5999723	0.32310334	-0.5289583	0.437028	0.90068805	0.75072515	0.6883461	-0.71464837	0.6564288	0.33203092	0.5771267	0.4533511	-0.13546076	0.023823896	0.4374739	-0.74367917	0.36166704	0.16240671	0.6639191	-0.3634969	-0.8623248	0.56973296	-0.753756	-0.49675137	-0.40916935	-0.39506382	-0.3895423	0.36845526	-0.3385435	-0.1204187	-0.3715662	-0.45607087	-0.91119295	-0.18760267	0.22255217	-0.5451516	0.03300289	-0.52324885	0.5339686	-0.44488156	0.41647622
0.4130518	-0.017916698	-0.26624134	-0.10289462	-0.2034481	0.115007386	0.25576374	0.21897036	0.29430804	0.1865883	-0.46447298	0.2631091	0.15986454	-0.09711673	-0.41574827	-0.17862509	0.0838226	-0.19661193	-0.19019252	-0.3868814	-0.13242652	-0.16698879	-0.22886418	-0.15122326	0.24322265	-0.1079806	0.4234994	0.13110135	0.077987105	0.12051361	-0.2063438	-0.018012188	0.3832846	0.21103357	0.42804205	-0.38128406	0.4625783	0.3478652	0.09509261	0.32602245	-0.115328535	0.026417315	-0.29462194	-0.12188551	0.05138735	-0.14484434	-0.15736936	-0.20782173	-0.33679593	-0.3866836	0.3882661	0.1326738	-0.19799986	-0.28710443	-0.171661	-0.011077415	-0.31105384	0.18721202	0.10930669	-0.23978785	-0.21288805	0.27816424	-0.23213856	0.37536988
-0.81974065	-0.72692984	-0.026458832	0.3420014	-0.76436216	-0.6383222	0.64981204	0.5504394	0.5814189	-1.007663	0.93875057	0.87309265	-0.97600627	0.5375061	0.8992042	-0.6833649	0.020661123	-0.8513272	0.7994797	0.02440277	-0.9487126	-0.9068352	0.9673895	0.963436	0.5966369	0.49984774	-0.42960054	-0.210493	0.90828186	-0.6367841	-0.9245892	1.1106	-0.964464	-0.8730087	-0.8517011	0.8685318	-0.845683	-0.31293377	-0.7818502	-0.33009008	-0.5640171	-0.5158238	-0.48077735	0.39517018	-0.7511769	0.64172924	-0.98249274	1.0493959	0.5070484	0.8651825	-0.6303471	-0.49161363	0.89231414	0.4625557	0.95284283	-0.72312045	0.5492002	-1.0215427	-0.41516533	-0.34170356	0.89103913	-0.969926	-0.85915715	-0.5128255
-0.7729269	0.40878803	0.61350894	0.30407524	0.5104034	-0.30289313	-0.5370024	-0.5382104	-0.005177484	-0.073857374	0.66199857	-0.43269667	-0.40513486	0.0921905	0.69099045	0.42622542	-0.56589425	0.3278049	0.29299727	0.75152725	0.22776078	0.28865588	0.2973865	0.54225755	-0.5922945	-0.42735532	-0.68836564	-0.3862789	-0.2307805	-0.03965216	0.46144602	0.18330097	-0.7648849	0.2830665	-0.8000442	0.13990979	-0.030498484	-0.002475491	0.2748318	0.1007112	0.40573275	-0.21543865	0.5737906	0.3620852	0.3629119	0.37953615	-0.088342965	0.63261825	-0.09056962	0.71637714	0.009635002	0.37114075	-0.06718267	-0.17465377	0.403174	0.3188811	-0.17617111	-0.23532295	0.15186182	0.5305348	0.41136143	-0.66652966	-0.14186648	-0.0007785356
0.21408254	0.03074986	-0.13906135	-0.13297269	0.17625247	0.27622825	-0.20396261	-0.06213645	-0.45986354	0.78904176	-0.2711673	-0.3518744	0.68233466	-0.19264911	-0.27369407	0.27285367	0.15945065	0.4314293	-0.34040266	-0.060722157	0.44069293	0.47966754	-0.6831577	-0.59445226	0.02979965	0.11100223	0.085650004	0.17973183	-0.3516565	0.20504318	0.42340052	-0.27685088	0.27610397	0.09944131	0.26656318	-0.20452565	0.13269317	-0.20709608	0.17430335	-0.20570768	0.07699097	0.35172766	0.11639168	-0.2605629	0.0341624	-0.20528449	0.5452516	-0.62341917	0.1270826	-0.32275555	-0.16028294	-0.2460964	-0.78021526	0.22264107	-0.83125407	0.114510745	0.1509204	0.8711293	-0.008238427	0.03294685	-0.62869567	0.4722339	0.48558637	-0.13470809
